{"learner":{"attributes":{"scikit_learn":"{\"_estimator_type\": \"classifier\"}"},"feature_names":["state","tavg","tmin","tmax","prcp","snow","wdir","wspd","pres"],"feature_types":["int","float","float","float","float","float","float","float","float"],"gradient_booster":{"model":{"gbtree_model_param":{"num_parallel_tree":"1","num_trees":"300"},"iteration_indptr":[0,3,6,9,12,15,18,21,24,27,30,33,36,39,42,45,48,51,54,57,60,63,66,69,72,75,78,81,84,87,90,93,96,99,102,105,108,111,114,117,120,123,126,129,132,135,138,141,144,147,150,153,156,159,162,165,168,171,174,177,180,183,186,189,192,195,198,201,204,207,210,213,216,219,222,225,228,231,234,237,240,243,246,249,252,255,258,261,264,267,270,273,276,279,282,285,288,291,294,297,300],"tree_info":[0,1,2,0,1,2,0,1,2,0,1,2,0,1,2,0,1,2,0,1,2,0,1,2,0,1,2,0,1,2,0,1,2,0,1,2,0,1,2,0,1,2,0,1,2,0,1,2,0,1,2,0,1,2,0,1,2,0,1,2,0,1,2,0,1,2,0,1,2,0,1,2,0,1,2,0,1,2,0,1,2,0,1,2,0,1,2,0,1,2,0,1,2,0,1,2,0,1,2,0,1,2,0,1,2,0,1,2,0,1,2,0,1,2,0,1,2,0,1,2,0,1,2,0,1,2,0,1,2,0,1,2,0,1,2,0,1,2,0,1,2,0,1,2,0,1,2,0,1,2,0,1,2,0,1,2,0,1,2,0,1,2,0,1,2,0,1,2,0,1,2,0,1,2,0,1,2,0,1,2,0,1,2,0,1,2,0,1,2,0,1,2,0,1,2,0,1,2,0,1,2,0,1,2,0,1,2,0,1,2,0,1,2,0,1,2,0,1,2,0,1,2,0,1,2,0,1,2,0,1,2,0,1,2,0,1,2,0,1,2,0,1,2,0,1,2,0,1,2,0,1,2,0,1,2,0,1,2,0,1,2,0,1,2,0,1,2,0,1,2,0,1,2,0,1,2,0,1,2,0,1,2,0,1,2,0,1,2,0,1,2,0,1,2,0,1,2,0,1,2],"trees":[{"base_weights":[5.2294743E-1,1.2938347E-1,8.3663535E-1,-3.6319456E-1,3.1351167E-1,6.177739E-1,1.062086E0,4.3121526E-1,-4.7240886E-1,-3.566161E-1,3.5957336E-1,1.3325062E0,5.4678553E-1,1.3919802E0,8.774703E-1,1.0496334E-1,1.4214464E-1,-5.8951974E-1,-2.6133403E-1,-5.169367E-1,8.33935E-1,1.3608247E0,3.3266887E-1,1.4173847E0,-1.4906837E-1,1.0024321E0,4.41348E-1,1.4495728E0,1.1075442E0,7.729209E-1,1.3893106E0,4.7899157E-1,-6.6666675E-1,-7.0152694E-1,-3.953322E-1,7.933884E-1,-4.3710262E-1,3.134328E-1,-6.048781E-1,-5.7303376E-2,1.4314722E-1,1.3483143E-1,1.4829761E-1,5.167737E-1,2.1650253E-1,1.4770498E0,1.3953485E-1,1.2244898E-1,-6.942149E-2,3.412759E-1,1.2124352E0,5.880364E-1,-8.419621E-3,-4.2857148E-2,1.4525052E0,1.441774E-1,1.4899027E-1,6.49905E-1,1.3031898E0,6.0975605E-1,1.4831232E-1,-3.333334E-2,7.075038E-2,-6.1224527E-3,-7.315069E-2,-7.089193E-2,9.6E-2,9.7790055E-2,-4.8909307E-2,1.0990099E-1,-6.880735E-2,1.0909092E-1,-4.8873045E-2,-6.1061956E-2,1.3608247E-1,-6.789202E-2,5.8407076E-2,-6.31579E-2,1.1707317E-1,9.9013455E-2,3.4551922E-2,8.253627E-2,1.53990155E-2,-5.1724143E-2,1.494662E-1,-5.647059E-2,1.24528304E-1,8.1970885E-2,-6.906476E-2,1.4159012E-1,4.9060773E-2,7.166827E-2,1.4416473E-2,-3.322327E-2,7.1065985E-2,1.4783907E-1,1.2896553E-1,-2.5899285E-2,1.3984963E-1,3.3824548E-2,1.0237419E-1,1.4232509E-1,-7.1186446E-2,1.4410481E-1,-7.0469804E-2],"categories":[],"categories_nodes":[],"categories_segments":[],"categories_sizes":[],"default_left":[0,0,0,0,0,0,0,0,0,0,0,0,0,0,0,0,0,0,0,0,0,0,0,0,0,0,0,0,0,0,0,0,0,0,0,0,0,0,0,0,0,0,0,0,0,0,0,0,0,0,0,0,0,0,0,0,0,0,0,0,0,0,0,0,0,0,0,0,0,0,0,0,0,0,0,0,0,0,0,0,0,0,0,0,0,0,0,0,0,0,0,0,0,0,0,0,0,0,0,0,0,0,0,0,0],"id":0,"left_children":[1,3,5,7,9,11,13,15,17,19,21,23,25,27,29,31,-1,33,35,37,39,41,43,45,47,49,51,53,55,57,59,61,63,65,67,69,71,73,75,-1,-1,77,-1,79,81,83,85,-1,-1,87,89,91,93,-1,95,97,-1,99,101,103,-1,-1,-1,-1,-1,-1,-1,-1,-1,-1,-1,-1,-1,-1,-1,-1,-1,-1,-1,-1,-1,-1,-1,-1,-1,-1,-1,-1,-1,-1,-1,-1,-1,-1,-1,-1,-1,-1,-1,-1,-1,-1,-1,-1,-1],"loss_changes":[1.5191306E3,4.952517E2,3.3722412E2,1.291208E2,1.2280481E2,1.7568628E2,2.0412549E2,5.8038357E1,3.2148376E1,4.931499E1,9.97363E1,3.9628174E1,1.5159003E2,1.8185059E1,1.14757324E2,3.973082E1,0E0,1.7985779E1,8.712855E1,1.6717316E1,2.6695654E1,1.4326431E1,7.73772E1,2.2404114E1,1.4245089E1,8.204468E1,1.6967252E2,6.1381836E0,7.627956E1,1.1654797E2,2.585376E1,1.7416573E1,1.721777E0,7.2053223E0,4.032095E1,3.1192184E1,3.2237328E1,2.244615E1,1.8443161E1,0E0,0E0,8.590443E0,0E0,1.1323016E2,8.4491615E1,1.0720947E1,1.1864771E1,0E0,0E0,7.19341E1,6.544452E1,1.1063092E2,1.4773195E2,0E0,2.308838E0,3.0760633E1,0E0,1.7008167E2,8.2758545E1,4.5816006E1,0E0,0E0,0E0,0E0,0E0,0E0,0E0,0E0,0E0,0E0,0E0,0E0,0E0,0E0,0E0,0E0,0E0,0E0,0E0,0E0,0E0,0E0,0E0,0E0,0E0,0E0,0E0,0E0,0E0,0E0,0E0,0E0,0E0,0E0,0E0,0E0,0E0,0E0,0E0,0E0,0E0,0E0,0E0,0E0,0E0],"parents":[2147483647,0,0,1,1,2,2,3,3,4,4,5,5,6,6,7,7,8,8,9,9,10,10,11,11,12,12,13,13,14,14,15,15,17,17,18,18,19,19,20,20,21,21,22,22,23,23,24,24,25,25,26,26,27,27,28,28,29,29,30,30,31,31,32,32,33,33,34,34,35,35,36,36,37,37,38,38,41,41,43,43,44,44,45,45,46,46,49,49,50,50,51,51,52,52,54,54,55,55,57,57,58,58,59,59],"right_children":[2,4,6,8,10,12,14,16,18,20,22,24,26,28,30,32,-1,34,36,38,40,42,44,46,48,50,52,54,56,58,60,62,64,66,68,70,72,74,76,-1,-1,78,-1,80,82,84,86,-1,-1,88,90,92,94,-1,96,98,-1,100,102,104,-1,-1,-1,-1,-1,-1,-1,-1,-1,-1,-1,-1,-1,-1,-1,-1,-1,-1,-1,-1,-1,-1,-1,-1,-1,-1,-1,-1,-1,-1,-1,-1,-1,-1,-1,-1,-1,-1,-1,-1,-1,-1,-1,-1,-1],"split_conditions":[1.27E1,5.6E0,2E1,1.0143E3,4E0,4.3E0,1.52E2,4.1E1,2.2E0,1.81E2,9.981E2,3E-1,2.29E1,2.7E1,3.66E1,3.5E1,1.4214464E-1,1.0236E3,-7.2E0,1E0,8.3E0,1.41E2,9.5E0,4.5E1,1.58E1,1.36E1,9E-1,2.14E1,3.6E1,9.194871E0,1.6E1,1.0068E3,-3.3E0,5.08E2,4.9E1,2.8E2,4.3E1,1.04E1,2.44E1,-5.7303376E-2,1.4314722E-1,9.1E0,1.4829761E-1,2.3E1,4.8E0,2.07E1,2.27E1,1.2244898E-1,-6.942149E-2,5.8E0,4E1,1.82E1,1.015E3,-4.2857148E-2,1.0179E3,2.3E1,1.4899027E-1,1.0145E3,1.8E1,1.3E1,1.4831232E-1,-3.333334E-2,7.075038E-2,-6.1224527E-3,-7.315069E-2,-7.089193E-2,9.6E-2,9.7790055E-2,-4.8909307E-2,1.0990099E-1,-6.880735E-2,1.0909092E-1,-4.8873045E-2,-6.1061956E-2,1.3608247E-1,-6.789202E-2,5.8407076E-2,-6.31579E-2,1.1707317E-1,9.9013455E-2,3.4551922E-2,8.253627E-2,1.53990155E-2,-5.1724143E-2,1.494662E-1,-5.647059E-2,1.24528304E-1,8.1970885E-2,-6.906476E-2,1.4159012E-1,4.9060773E-2,7.166827E-2,1.4416473E-2,-3.322327E-2,7.1065985E-2,1.4783907E-1,1.2896553E-1,-2.5899285E-2,1.3984963E-1,3.3824548E-2,1.0237419E-1,1.4232509E-1,-7.1186446E-2,1.4410481E-1,-7.0469804E-2],"split_indices":[2,3,2,8,0,7,6,0,3,6,8,4,3,0,3,0,0,8,2,0,1,6,7,0,1,2,4,1,0,5,0,8,2,5,6,5,6,1,3,0,0,1,0,0,1,3,1,0,0,4,0,2,8,0,8,2,0,8,0,0,0,0,0,0,0,0,0,0,0,0,0,0,0,0,0,0,0,0,0,0,0,0,0,0,0,0,0,0,0,0,0,0,0,0,0,0,0,0,0,0,0,0,0,0,0],"split_type":[0,0,0,0,0,0,0,0,0,0,0,0,0,0,0,0,0,0,0,0,0,0,0,0,0,0,0,0,0,0,0,0,0,0,0,0,0,0,0,0,0,0,0,0,0,0,0,0,0,0,0,0,0,0,0,0,0,0,0,0,0,0,0,0,0,0,0,0,0,0,0,0,0,0,0,0,0,0,0,0,0,0,0,0,0,0,0,0,0,0,0,0,0,0,0,0,0,0,0,0,0,0,0,0,0],"sum_hessian":[1.2304888E4,5.4582217E3,6.846666E3,1.4848888E3,3.973333E3,3.4759998E3,3.3706665E3,1.791111E2,1.3057777E3,2.551111E2,3.718222E3,3.1244443E2,3.1635554E3,1.2071111E3,2.1635554E3,1.3555554E2,4.3555553E1,8.386666E2,4.6711108E2,2.2533331E2,2.9777777E1,9.599999E1,3.622222E3,2.9555554E2,1.6888887E1,5.9288885E2,2.5706665E3,1.0004444E3,2.0666666E2,1.7986665E3,3.6488885E2,9.155555E1,4.3999996E1,5.3022217E2,3.0844443E2,6.622222E1,4.0088885E2,2.1333332E1,2.0399998E2,8.888888E0,2.0888887E1,8.888888E0,8.711111E1,1.3999999E3,2.2222222E3,2.822222E2,1.3333332E1,4.444444E0,1.2444444E1,1.4355554E2,4.493333E2,1.938222E3,6.324444E2,1.3333333E0,9.99111E2,5.9111107E1,1.4755554E2,1.4617777E3,3.3688885E2,3.9999996E1,3.2488885E2,1.9999998E1,7.155555E1,4.444444E0,3.9555553E1,5.284444E2,1.7777777E0,1.911111E1,2.893333E2,5.5111107E1,1.1111111E1,1.2444444E1,3.8844443E2,1.1555555E1,9.777777E0,1.9244443E2,1.1555555E1,5.333333E0,3.5555553E0,3.7066666E2,1.0293333E3,2.0577777E2,2.0164443E3,2.222222E0,2.7999997E2,8.444444E0,4.8888884E0,9.822221E1,4.5333332E1,3.4977777E2,9.955555E1,1.5022222E3,4.3599997E2,4.3644443E2,1.9599998E2,8.551111E2,1.4399998E2,4.5333332E1,1.3777777E1,7.9822217E2,6.6355554E2,3.182222E2,1.8666666E1,2.4444443E1,1.5555554E1],"tree_param":{"num_deleted":"0","num_feature":"9","num_nodes":"105","size_leaf_vector":"1"}},{"base_weights":[2.2699155E-1,6.204791E-1,-8.674493E-2,1.1126897E0,4.3629956E-1,1.3201031E-1,-3.1230852E-1,3.1462058E-1,1.2218349E0,1.1036876E0,3.9022493E-1,-5.84899E-1,2.0297739E-1,-6.42601E-1,-1.278169E-1,6.395443E-1,-6.882794E-1,1.3386264E0,1.0097318E0,1.263623E0,-1.0830329E-1,-6.1855674E-1,4.1712406E-1,-6.699139E-1,8.5714287E-1,-2.536951E-1,3.083603E-1,-7.003218E-1,-3.6115575E-1,-2.3337701E-2,-6.413605E-1,2.6290512E-1,1.4E0,-3.692308E-2,-7.304349E-2,1.4501151E0,1.1429085E0,-5.45455E-2,1.1852363E0,4.0298504E-1,1.3512195E0,1.247191E-1,-7.157361E-2,5.3932583E-1,-7.414881E-2,2.326909E-1,5.3316003E-1,-7.29698E-1,5.581395E-1,-6.1224498E-2,1.3884299E-1,4.0353572E-1,-4.6410072E-1,1.6157676E-1,7.572355E-1,8.571428E-2,-7.0325524E-1,5.9334564E-1,-7.4495144E-2,9.958218E-2,-5.554095E-1,1.2195118E-1,-7.354245E-2,4.856278E-2,-5.63536E-2,6.734694E-2,1.4630137E-1,1.4575027E-1,-4.8000004E-2,-2.6519343E-2,1.2365098E-1,-3.623763E-2,1.3761468E-1,-3.9669428E-2,1.23680465E-1,1.300885E-1,-6.804124E-2,1.4250432E-1,1.0619465E-2,1.2631579E-1,-5.853659E-2,-2.4215251E-2,4.037528E-2,-7.898984E-3,5.9563804E-2,1.0344827E-1,-7.47331E-2,1.2352941E-1,-6.2264156E-2,-7.7267685E-3,1.4244604E-1,-6.680393E-2,2.5193367E-2,3.2818348E-3,6.0411897E-2,1.08051814E-1,3.5532953E-3,-7.292668E-2,-5.4482765E-2,9.928057E-2,-6.9924824E-2,4.1081604E-2,-2.7487049E-2,-6.756005E-2,1.4237289E-1,-7.205241E-2,1.409396E-1],"categories":[],"categories_nodes":[],"categories_segments":[],"categories_sizes":[],"default_left":[0,0,0,0,0,0,0,0,0,0,0,0,0,0,0,0,0,0,0,0,0,0,0,0,0,0,0,0,0,0,0,0,0,0,0,0,0,0,0,0,0,0,0,0,0,0,0,0,0,0,0,0,0,0,0,0,0,0,0,0,0,0,0,0,0,0,0,0,0,0,0,0,0,0,0,0,0,0,0,0,0,0,0,0,0,0,0,0,0,0,0,0,0,0,0,0,0,0,0,0,0,0,0,0,0,0,0],"id":1,"left_children":[1,3,5,7,9,11,13,15,17,19,21,23,25,27,29,31,33,35,37,39,41,43,45,47,49,51,53,55,57,59,61,63,65,-1,-1,67,69,71,73,75,77,-1,-1,79,-1,81,83,85,87,-1,-1,89,91,93,95,-1,97,99,-1,101,103,105,-1,-1,-1,-1,-1,-1,-1,-1,-1,-1,-1,-1,-1,-1,-1,-1,-1,-1,-1,-1,-1,-1,-1,-1,-1,-1,-1,-1,-1,-1,-1,-1,-1,-1,-1,-1,-1,-1,-1,-1,-1,-1,-1,-1,-1],"loss_changes":[1.5192329E3,4.9442114E2,3.379271E2,1.2904431E2,1.2177869E2,1.7701788E2,2.0537439E2,5.913227E1,3.1019775E1,4.9781525E1,1.0118048E2,3.900093E1,1.5237395E2,1.9373138E1,1.1612344E2,3.874382E1,3.2955742E-1,1.6664429E1,8.750107E1,1.6518463E1,2.6234211E1,1.4206886E1,7.741608E1,2.217981E1,1.4815314E1,8.231323E1,1.6931833E2,5.1781616E0,7.651727E1,1.1775746E2,2.6360565E1,1.7310108E1,1.0748672E0,0E0,0E0,8.274292E0,4.1112762E1,3.0104095E1,3.3275635E1,2.2610611E1,1.8690674E1,0E0,0E0,8.789835E0,0E0,1.1389767E2,8.507617E1,9.583542E0,1.2229668E1,0E0,0E0,7.1067184E1,6.592915E1,1.1047906E2,1.4775299E2,0E0,3.7240295E0,3.1731964E1,0E0,1.7058847E2,8.133706E1,4.5485756E1,0E0,0E0,0E0,0E0,0E0,0E0,0E0,0E0,0E0,0E0,0E0,0E0,0E0,0E0,0E0,0E0,0E0,0E0,0E0,0E0,0E0,0E0,0E0,0E0,0E0,0E0,0E0,0E0,0E0,0E0,0E0,0E0,0E0,0E0,0E0,0E0,0E0,0E0,0E0,0E0,0E0,0E0,0E0,0E0,0E0],"parents":[2147483647,0,0,1,1,2,2,3,3,4,4,5,5,6,6,7,7,8,8,9,9,10,10,11,11,12,12,13,13,14,14,15,15,16,16,17,17,18,18,19,19,20,20,21,21,22,22,23,23,24,24,25,25,26,26,27,27,28,28,29,29,30,30,31,31,32,32,35,35,36,36,37,37,38,38,39,39,40,40,43,43,45,45,46,46,47,47,48,48,51,51,52,52,53,53,54,54,56,56,57,57,59,59,60,60,61,61],"right_children":[2,4,6,8,10,12,14,16,18,20,22,24,26,28,30,32,34,36,38,40,42,44,46,48,50,52,54,56,58,60,62,64,66,-1,-1,68,70,72,74,76,78,-1,-1,80,-1,82,84,86,88,-1,-1,90,92,94,96,-1,98,100,-1,102,104,106,-1,-1,-1,-1,-1,-1,-1,-1,-1,-1,-1,-1,-1,-1,-1,-1,-1,-1,-1,-1,-1,-1,-1,-1,-1,-1,-1,-1,-1,-1,-1,-1,-1,-1,-1,-1,-1,-1,-1,-1,-1,-1,-1,-1,-1],"split_conditions":[1.27E1,5.6E0,2E1,1.0143E3,4E0,4.3E0,1.52E2,4.1E1,2.2E0,1.81E2,9.981E2,3E-1,2.29E1,2.7E1,3.66E1,3.5E1,-1E-1,1.0236E3,-7.2E0,1E0,8.3E0,1.41E2,9.5E0,4.5E1,1.58E1,1.36E1,9E-1,2.14E1,3.6E1,9.194871E0,1.6E1,1.87E1,-3.3E0,-3.692308E-2,-7.304349E-2,5.08E2,4.9E1,2.8E2,4.3E1,1.04E1,2.44E1,1.247191E-1,-7.157361E-2,9.1E0,-7.414881E-2,2.3E1,4.8E0,2.07E1,2.27E1,-6.1224498E-2,1.3884299E-1,5.8E0,4E1,1.82E1,1.015E3,8.571428E-2,1.0179E3,2.3E1,-7.4495144E-2,1.0145E3,1.8E1,1.3E1,-7.354245E-2,4.856278E-2,-5.63536E-2,6.734694E-2,1.4630137E-1,1.4575027E-1,-4.8000004E-2,-2.6519343E-2,1.2365098E-1,-3.623763E-2,1.3761468E-1,-3.9669428E-2,1.23680465E-1,1.300885E-1,-6.804124E-2,1.4250432E-1,1.0619465E-2,1.2631579E-1,-5.853659E-2,-2.4215251E-2,4.037528E-2,-7.898984E-3,5.9563804E-2,1.0344827E-1,-7.47331E-2,1.2352941E-1,-6.2264156E-2,-7.7267685E-3,1.4244604E-1,-6.680393E-2,2.5193367E-2,3.2818348E-3,6.0411897E-2,1.08051814E-1,3.5532953E-3,-7.292668E-2,-5.4482765E-2,9.928057E-2,-6.9924824E-2,4.1081604E-2,-2.7487049E-2,-6.756005E-2,1.4237289E-1,-7.205241E-2,1.409396E-1],"split_indices":[2,3,2,8,0,7,6,0,3,6,8,4,3,0,3,0,1,8,2,0,1,6,7,0,1,2,4,1,0,5,0,7,2,0,0,5,6,5,6,1,3,0,0,1,0,0,1,3,1,0,0,4,0,2,8,0,8,2,0,8,0,0,0,0,0,0,0,0,0,0,0,0,0,0,0,0,0,0,0,0,0,0,0,0,0,0,0,0,0,0,0,0,0,0,0,0,0,0,0,0,0,0,0,0,0,0,0],"split_type":[0,0,0,0,0,0,0,0,0,0,0,0,0,0,0,0,0,0,0,0,0,0,0,0,0,0,0,0,0,0,0,0,0,0,0,0,0,0,0,0,0,0,0,0,0,0,0,0,0,0,0,0,0,0,0,0,0,0,0,0,0,0,0,0,0,0,0,0,0,0,0,0,0,0,0,0,0,0,0,0,0,0,0,0,0,0,0,0,0,0,0,0,0,0,0,0,0,0,0,0,0,0,0,0,0,0,0],"sum_hessian":[1.2304888E4,5.4582217E3,6.846666E3,1.4848888E3,3.973333E3,3.4759998E3,3.3706665E3,1.791111E2,1.3057777E3,2.551111E2,3.718222E3,3.1244443E2,3.1635554E3,1.2071111E3,2.1635554E3,1.3555554E2,4.3555553E1,8.386666E2,4.6711108E2,2.2533331E2,2.9777777E1,9.599999E1,3.622222E3,2.9555554E2,1.6888887E1,5.9288885E2,2.5706665E3,1.0004444E3,2.0666666E2,1.7986665E3,3.6488885E2,9.155555E1,4.3999996E1,6.222222E0,3.7333332E1,5.3022217E2,3.0844443E2,6.622222E1,4.0088885E2,2.1333332E1,2.0399998E2,8.888888E0,2.0888887E1,8.888888E0,8.711111E1,1.3999999E3,2.2222222E3,2.822222E2,1.3333332E1,4.444444E0,1.2444444E1,1.4355554E2,4.493333E2,1.938222E3,6.324444E2,1.3333333E0,9.99111E2,5.9111107E1,1.4755554E2,1.4617777E3,3.3688885E2,3.9999996E1,3.2488885E2,7.244444E1,1.911111E1,4.444444E0,3.9555553E1,5.284444E2,1.7777777E0,1.911111E1,2.893333E2,5.5111107E1,1.1111111E1,1.2444444E1,3.8844443E2,1.1555555E1,9.777777E0,1.9244443E2,1.1555555E1,5.333333E0,3.5555553E0,3.7066666E2,1.0293333E3,2.0577777E2,2.0164443E3,2.222222E0,2.7999997E2,8.444444E0,4.8888884E0,9.822221E1,4.5333332E1,3.4977777E2,9.955555E1,1.5022222E3,4.3599997E2,4.3644443E2,1.9599998E2,8.551111E2,1.4399998E2,4.5333332E1,1.3777777E1,7.9822217E2,6.6355554E2,3.182222E2,1.8666666E1,2.4444443E1,1.5555554E1],"tree_param":{"num_deleted":"0","num_feature":"9","num_nodes":"107","size_leaf_vector":"1"}},{"base_weights":[-7.4993914E-1],"categories":[],"categories_nodes":[],"categories_segments":[],"categories_sizes":[],"default_left":[0],"id":2,"left_children":[-1],"loss_changes":[0E0],"parents":[2147483647],"right_children":[-1],"split_conditions":[-7.4993916E-2],"split_indices":[0],"split_type":[0],"sum_hessian":[1.2304888E4],"tree_param":{"num_deleted":"0","num_feature":"9","num_nodes":"1","size_leaf_vector":"1"}},{"base_weights":[4.7272417E-1,-6.090618E-2,6.5896356E-1,-5.147932E-1,1.0801011E-1,4.8456612E-1,9.295811E-1,-5.366702E-1,1.0299715E0,6.379411E-2,1.0386648E0,9.4984084E-1,4.2588794E-1,1.2172244E0,7.652563E-1,4.620809E-1,-5.6163025E-1,1.3028991E-1,-4.562566E-2,9.831291E-2,-7.257628E-2,1.1665294E0,-6.627108E-2,1.0777847E0,-2.1560831E-1,2.542213E-1,5.685976E-1,1.2632173E0,9.804935E-1,1.2256697E0,6.6567475E-1,-3.445281E-1,1.2671186E-1,-6.506512E-1,-3.4574217E-1,1.8802507E-1,-2.375188E-1,1.2561325E0,-6.173197E-2,1.225769E0,-8.983075E-2,1.2746659E-1,-4.2919925E-1,6.271945E-1,3.1400513E-2,4.5528206E-1,8.34918E-1,-4.1820195E-2,1.265586E0,1.3423595E-1,1.2914483E-1,-4.8424732E-2,1.2342894E0,1.1843351E0,5.3651214E-1,9.716369E-2,-6.768472E-2,-6.568824E-2,8.813163E-2,1.2788126E-1,-4.5707207E-2,-7.280258E-4,4.6152454E-2,7.699719E-2,-3.7165686E-2,1.3041422E-1,-5.2198093E-2,8.949101E-2,1.296741E-1,-5.4588962E-2,1.2318478E-1,-7.4158736E-2,6.413712E-2,3.247159E-3,9.7531594E-2,1.4951882E-2,-5.8201592E-2,8.240293E-2,2.477912E-2,-7.4151285E-2,9.149494E-2,1.2857516E-1,1.1361928E-1,1.2163222E-1,-2.8201506E-2,1.0516429E-1,1.3371527E-1,1.24114655E-1,-5.04599E-2,4.4593263E-2,1.2777184E-1],"categories":[],"categories_nodes":[],"categories_segments":[],"categories_sizes":[],"default_left":[0,0,0,0,0,0,0,0,0,0,0,0,0,0,0,0,0,0,0,0,0,0,0,0,0,0,0,0,0,0,0,0,0,0,0,0,0,0,0,0,0,0,0,0,0,0,0,0,0,0,0,0,0,0,0,0,0,0,0,0,0,0,0,0,0,0,0,0,0,0,0,0,0,0,0,0,0,0,0,0,0,0,0,0,0,0,0,0,0,0,0],"id":3,"left_children":[1,3,5,7,9,11,13,15,17,19,21,23,25,27,29,31,33,-1,-1,35,-1,37,-1,39,41,43,45,47,49,51,53,55,-1,57,59,61,63,65,-1,67,69,-1,71,73,75,77,79,-1,81,83,-1,-1,85,87,89,-1,-1,-1,-1,-1,-1,-1,-1,-1,-1,-1,-1,-1,-1,-1,-1,-1,-1,-1,-1,-1,-1,-1,-1,-1,-1,-1,-1,-1,-1,-1,-1,-1,-1,-1,-1],"loss_changes":[1.2506646E3,2.4973001E2,4.3980176E2,3.0407303E1,9.762837E1,1.5452441E2,1.7181079E2,2.1990723E1,5.737343E0,6.18712E1,2.4184158E1,9.4875305E1,1.2335333E2,1.3210205E1,1.0594641E2,1.4594364E1,1.612857E1,0E0,0E0,6.552544E1,0E0,1.6831955E1,0E0,9.896094E1,2.0797752E1,1.9030725E2,8.2666626E1,4.940918E0,5.7810745E1,6.6833496E0,1.2776611E2,5.765062E0,0E0,6.3193817E0,4.59028E1,9.165282E1,6.2267284E1,8.874176E0,0E0,1.0763733E1,4.002261E1,0E0,1.9335165E1,1.772833E2,1.0404072E2,1.4766849E2,1.0415723E2,0E0,1.4260254E0,2.7514912E1,0E0,0E0,6.317444E0,3.721411E1,1.0257883E2,0E0,0E0,0E0,0E0,0E0,0E0,0E0,0E0,0E0,0E0,0E0,0E0,0E0,0E0,0E0,0E0,0E0,0E0,0E0,0E0,0E0,0E0,0E0,0E0,0E0,0E0,0E0,0E0,0E0,0E0,0E0,0E0,0E0,0E0,0E0,0E0],"parents":[2147483647,0,0,1,1,2,2,3,3,4,4,5,5,6,6,7,7,8,8,9,9,10,10,11,11,12,12,13,13,14,14,15,15,16,16,19,19,21,21,23,23,24,24,25,25,26,26,27,27,28,28,29,29,30,30,31,31,33,33,34,34,35,35,36,36,37,37,39,39,40,40,42,42,43,43,44,44,45,45,46,46,48,48,49,49,52,52,53,53,54,54],"right_children":[2,4,6,8,10,12,14,16,18,20,22,24,26,28,30,32,34,-1,-1,36,-1,38,-1,40,42,44,46,48,50,52,54,56,-1,58,60,62,64,66,-1,68,70,-1,72,74,76,78,80,-1,82,84,-1,-1,86,88,90,-1,-1,-1,-1,-1,-1,-1,-1,-1,-1,-1,-1,-1,-1,-1,-1,-1,-1,-1,-1,-1,-1,-1,-1,-1,-1,-1,-1,-1,-1,-1,-1,-1,-1,-1,-1],"split_conditions":[1.16E1,1.8E0,1.96E1,4.6E1,2.64E1,4.7E0,1.52E2,1.0092E3,4.9E1,1.0336E3,1.37E1,4.8E1,2.5E1,2.7E1,1.0078E3,1.24E1,1.025E3,1.3028991E-1,-4.562566E-2,1.9E0,-7.257628E-2,5.6E0,-6.627108E-2,5E-1,1.29E1,1E1,1.0187E3,2.14E1,3.6E1,1.98E1,4.9E0,6E0,1.2671186E-1,5.08E2,1.0254E3,1.89E2,9E0,5.21E1,-6.173197E-2,1.01E1,4.4E0,1.2746659E-1,2.78E1,4E0,8.3E0,1.0106E3,1.19E1,-4.1820195E-2,1.0179E3,2.62E1,1.2914483E-1,-4.8424732E-2,1.79E2,2.93E1,1.0186E3,9.716369E-2,-6.768472E-2,-6.568824E-2,8.813163E-2,1.2788126E-1,-4.5707207E-2,-7.280258E-4,4.6152454E-2,7.699719E-2,-3.7165686E-2,1.3041422E-1,-5.2198093E-2,8.949101E-2,1.296741E-1,-5.4588962E-2,1.2318478E-1,-7.4158736E-2,6.413712E-2,3.247159E-3,9.7531594E-2,1.4951882E-2,-5.8201592E-2,8.240293E-2,2.477912E-2,-7.4151285E-2,9.149494E-2,1.2857516E-1,1.1361928E-1,1.2163222E-1,-2.8201506E-2,1.0516429E-1,1.3371527E-1,1.24114655E-1,-5.04599E-2,4.4593263E-2,1.2777184E-1],"split_indices":[1,3,2,0,4,7,6,8,0,8,3,0,0,0,8,7,8,0,0,4,0,2,0,4,1,0,8,1,0,2,7,6,0,5,8,6,7,4,0,2,7,0,3,0,4,8,1,0,8,3,0,0,6,1,8,0,0,0,0,0,0,0,0,0,0,0,0,0,0,0,0,0,0,0,0,0,0,0,0,0,0,0,0,0,0,0,0,0,0,0,0],"split_type":[0,0,0,0,0,0,0,0,0,0,0,0,0,0,0,0,0,0,0,0,0,0,0,0,0,0,0,0,0,0,0,0,0,0,0,0,0,0,0,0,0,0,0,0,0,0,0,0,0,0,0,0,0,0,0,0,0,0,0,0,0,0,0,0,0,0,0,0,0,0,0,0,0,0,0,0,0,0,0,0,0,0,0,0,0,0,0,0,0,0,0],"sum_hessian":[1.2582893E4,3.2555269E3,9.327366E3,8.824064E2,2.3731204E3,5.6737515E3,3.6536145E3,8.707277E2,1.1678677E1,2.2665059E3,1.0661459E2,6.337101E2,5.0400415E3,1.3260377E3,2.327577E3,2.0803024E1,8.499247E2,9.97098E0,1.7076968E0,2.1724055E3,9.4100334E1,9.945458E1,7.1600175E0,5.710906E2,6.261951E1,2.289166E3,2.7508752E3,1.1066897E3,2.1934796E2,4.1189243E2,1.9156844E3,1.0677109E1,1.0125916E1,6.003556E2,2.4956912E2,1.7147714E3,4.5763412E2,9.497957E1,4.475011E0,5.0680765E2,6.428294E1,7.2270308E0,5.539248E1,8.554457E2,1.4337203E3,1.9316814E3,8.191939E2,1.309899E0,1.1053799E3,5.932575E1,1.6002222E2,1.7891715E0,4.1010324E2,3.803192E2,1.5353652E3,1.7645842E0,8.912525E0,5.984925E2,1.8630866E0,1.53334E1,2.3423572E2,1.00096094E3,7.138105E2,5.3213726E1,4.044204E2,9.2742065E1,2.2375054E0,9.1916916E1,4.1489072E2,4.8228256E1,1.6054688E1,4.311809E1,1.2274385E1,3.1625534E2,5.391903E2,1.2028568E3,2.3086357E2,6.944867E2,1.2371947E3,3.9179707E1,7.800142E2,9.486057E2,1.5677414E2,1.5947232E1,4.3378517E1,1.5179538E2,2.5830786E2,3.681991E2,1.2120141E1,1.3695947E3,1.6577052E2],"tree_param":{"num_deleted":"0","num_feature":"9","num_nodes":"91","size_leaf_vector":"1"}},{"base_weights":[2.0857231E-1,7.3068625E-1,1.4147623E-2,1.127998E0,5.7168734E-1,1.9675611E-1,-2.8440356E-1,1.1473457E0,-3.9847952E-1,6.141537E-1,-4.1618824E-1,-3.0491042E-1,2.5652218E-1,-6.198768E-1,-1.02060735E-1,1.959596E-1,1.1683291E0,-6.942848E-2,8.5274756E-2,5.808455E-1,1.3248204E-1,-5.6096536E-1,1.2451352E-1,-4.4673535E-1,8.849645E-1,4.2885214E-1,1.1261949E-1,-6.7545396E-1,-3.4556457E-1,-6.01201E-1,3.2894553E-3,9.625458E-1,-6.7744516E-2,1.2433656E0,9.7959405E-1,4.9278963E-1,9.0425915E-1,-6.6367733E-1,1.1612954E-1,-6.108582E-1,7.7221227E-1,-6.724311E-2,1.095638E0,5.155523E-2,6.5055734E-1,2.2669344E-1,-1.5718524E-1,7.947394E-2,-6.7828876E-1,5.340256E-1,-7.1724646E-2,-4.0601125E-1,-7.16103E-1,-5.5131704E-1,1.3855459E-1,-5.0294023E-2,1.2776433E-1,1.2485868E-1,-4.666948E-2,-6.919467E-2,1.0772717E-1,6.842851E-2,2.2146361E-2,-9.070066E-3,1.0341121E-1,-7.191436E-2,9.8451816E-2,-2.2702252E-2,-7.015201E-2,1.21350266E-1,-6.782537E-2,1.3956304E-1,-1.3071613E-3,6.447286E-2,-3.1175366E-2,5.3427875E-2,1.21906675E-1,-1.5107334E-2,4.3439273E-2,1.398432E-1,-2.3845116E-2,-7.032766E-2,-5.259483E-2,-5.916236E-2,9.280246E-2,-5.9443112E-2,1.1763926E-1,9.142084E-2,-7.3226735E-2,-6.111246E-2,1.1856069E-1,2.3285797E-2,-6.536323E-2],"categories":[],"categories_nodes":[],"categories_segments":[],"categories_sizes":[],"default_left":[0,0,0,0,0,0,0,0,0,0,0,0,0,0,0,0,0,0,0,0,0,0,0,0,0,0,0,0,0,0,0,0,0,0,0,0,0,0,0,0,0,0,0,0,0,0,0,0,0,0,0,0,0,0,0,0,0,0,0,0,0,0,0,0,0,0,0,0,0,0,0,0,0,0,0,0,0,0,0,0,0,0,0,0,0,0,0,0,0,0,0,0,0],"id":4,"left_children":[1,3,5,7,9,11,13,15,17,19,21,23,25,27,29,31,33,-1,-1,35,-1,37,-1,39,41,43,45,47,49,51,53,55,-1,57,59,61,63,65,-1,67,69,-1,71,73,75,77,79,-1,81,83,-1,85,87,89,91,-1,-1,-1,-1,-1,-1,-1,-1,-1,-1,-1,-1,-1,-1,-1,-1,-1,-1,-1,-1,-1,-1,-1,-1,-1,-1,-1,-1,-1,-1,-1,-1,-1,-1,-1,-1,-1,-1],"loss_changes":[1.2598027E3,2.1208313E2,4.9312067E2,2.8851318E1,1.0123346E2,1.6834918E2,2.0992462E2,1.8729126E1,5.320459E0,5.3868225E1,2.4703272E1,1.01293274E2,1.24326904E2,1.8192596E1,1.1701161E2,1.5177434E1,1.1937744E1,0E0,0E0,6.2396545E1,0E0,1.7132313E1,0E0,1.0748002E2,2.1738976E1,1.9084515E2,8.419638E1,4.7232666E0,6.7621025E1,8.406891E0,1.3798859E2,6.1685305E0,0E0,6.484192E0,4.4661743E1,9.007919E1,6.095056E1,8.745853E0,0E0,1.626509E1,4.1733265E1,0E0,1.889833E1,1.8244853E2,9.435773E1,1.508931E2,1.0313337E2,0E0,3.4465027E0,2.7897738E1,0E0,4.4232517E1,7.0678864E0,3.8189728E1,1.1062064E2,0E0,0E0,0E0,0E0,0E0,0E0,0E0,0E0,0E0,0E0,0E0,0E0,0E0,0E0,0E0,0E0,0E0,0E0,0E0,0E0,0E0,0E0,0E0,0E0,0E0,0E0,0E0,0E0,0E0,0E0,0E0,0E0,0E0,0E0,0E0,0E0,0E0,0E0],"parents":[2147483647,0,0,1,1,2,2,3,3,4,4,5,5,6,6,7,7,8,8,9,9,10,10,11,11,12,12,13,13,14,14,15,15,16,16,19,19,21,21,23,23,24,24,25,25,26,26,27,27,28,28,29,29,30,30,31,31,33,33,34,34,35,35,36,36,37,37,39,39,40,40,42,42,43,43,44,44,45,45,46,46,48,48,49,49,51,51,52,52,53,53,54,54],"right_children":[2,4,6,8,10,12,14,16,18,20,22,24,26,28,30,32,34,-1,-1,36,-1,38,-1,40,42,44,46,48,50,52,54,56,-1,58,60,62,64,66,-1,68,70,-1,72,74,76,78,80,-1,82,84,-1,86,88,90,92,-1,-1,-1,-1,-1,-1,-1,-1,-1,-1,-1,-1,-1,-1,-1,-1,-1,-1,-1,-1,-1,-1,-1,-1,-1,-1,-1,-1,-1,-1,-1,-1,-1,-1,-1,-1,-1,-1],"split_conditions":[1.16E1,1.8E0,1.96E1,4.6E1,2.64E1,4.7E0,1.52E2,1.0092E3,4.9E1,1.0336E3,1.37E1,4.8E1,2.5E1,2.7E1,1.0078E3,1.24E1,1.025E3,-6.942848E-2,8.5274756E-2,1.9E0,1.3248204E-1,5.6E0,1.2451352E-1,5E-1,1.29E1,1E1,1.0187E3,2.14E1,3.6E1,1.79E2,4.9E0,6E0,-6.7744516E-2,5.08E2,1.0254E3,1.89E2,9E0,5.21E1,1.1612954E-1,1.01E1,4.4E0,-6.724311E-2,2.78E1,4E0,8.3E0,1.0106E3,1.19E1,7.947394E-2,1.0179E3,2.62E1,-7.1724646E-2,1.77E2,1.98E1,2.93E1,1.0186E3,-5.0294023E-2,1.2776433E-1,1.2485868E-1,-4.666948E-2,-6.919467E-2,1.0772717E-1,6.842851E-2,2.2146361E-2,-9.070066E-3,1.0341121E-1,-7.191436E-2,9.8451816E-2,-2.2702252E-2,-7.015201E-2,1.21350266E-1,-6.782537E-2,1.3956304E-1,-1.3071613E-3,6.447286E-2,-3.1175366E-2,5.3427875E-2,1.21906675E-1,-1.5107334E-2,4.3439273E-2,1.398432E-1,-2.3845116E-2,-7.032766E-2,-5.259483E-2,-5.916236E-2,9.280246E-2,-5.9443112E-2,1.1763926E-1,9.142084E-2,-7.3226735E-2,-6.111246E-2,1.1856069E-1,2.3285797E-2,-6.536323E-2],"split_indices":[1,3,2,0,4,7,6,8,0,8,3,0,0,0,8,7,8,0,0,4,0,2,0,4,1,0,8,1,0,6,7,6,0,5,8,6,7,4,0,2,7,0,3,0,4,8,1,0,8,3,0,6,2,1,8,0,0,0,0,0,0,0,0,0,0,0,0,0,0,0,0,0,0,0,0,0,0,0,0,0,0,0,0,0,0,0,0,0,0,0,0,0,0],"split_type":[0,0,0,0,0,0,0,0,0,0,0,0,0,0,0,0,0,0,0,0,0,0,0,0,0,0,0,0,0,0,0,0,0,0,0,0,0,0,0,0,0,0,0,0,0,0,0,0,0,0,0,0,0,0,0,0,0,0,0,0,0,0,0,0,0,0,0,0,0,0,0,0,0,0,0,0,0,0,0,0,0,0,0,0,0,0,0,0,0,0,0,0,0],"sum_hessian":[1.2409507E4,3.3664316E3,9.043075E3,9.6041614E2,2.4060154E3,5.6112817E3,3.431793E3,9.486408E2,1.1775355E1,2.3072124E3,9.880306E1,5.9689984E2,5.014382E3,1.2076205E3,2.2241726E3,2.0694538E1,9.279463E2,9.883818E0,1.8915377E0,2.205653E3,1.0155936E2,9.149225E1,7.3108125E0,5.3388855E2,6.3011295E1,2.2809092E3,2.7334727E3,1.0029543E3,2.0466623E2,3.86807E2,1.8373656E3,1.0966869E1,9.727669E0,6.599703E2,2.67976E2,1.7356195E3,4.700335E2,8.6923E1,4.5692577E0,4.7097403E2,6.291454E1,7.2469187E0,5.5764378E1,8.44676E2,1.4362333E3,1.9213022E3,8.121704E2,1.3925545E0,1.0015617E3,6.066497E1,1.4400125E2,1.4500807E2,2.4179892E2,3.596545E2,1.477711E3,1.8352356E0,9.131634E0,6.582304E2,1.7398412E0,1.445893E1,2.5351707E2,1.0166032E3,7.190163E2,5.429737E1,4.1573615E2,8.463837E1,2.2846289E0,9.065812E1,3.803159E2,4.8363712E1,1.4550825E1,4.3685307E1,1.207907E1,3.2054636E2,5.2412964E2,1.1939679E3,2.4226538E2,6.8169574E2,1.2396064E3,3.9516933E1,7.7265344E2,8.573218E2,1.4423993E2,1.5598551E1,4.506642E1,1.3013678E2,1.4871288E1,1.8284328E0,2.3997049E2,3.4830933E2,1.13451805E1,1.3211455E3,1.5656554E2],"tree_param":{"num_deleted":"0","num_feature":"9","num_nodes":"93","size_leaf_vector":"1"}},{"base_weights":[-7.2285783E-1],"categories":[],"categories_nodes":[],"categories_segments":[],"categories_sizes":[],"default_left":[0],"id":5,"left_children":[-1],"loss_changes":[0E0],"parents":[2147483647],"right_children":[-1],"split_conditions":[-7.2285786E-2],"split_indices":[0],"split_type":[0],"sum_hessian":[1.1809342E4],"tree_param":{"num_deleted":"0","num_feature":"9","num_nodes":"1","size_leaf_vector":"1"}},{"base_weights":[4.3049228E-1,-5.4782737E-2,5.94762E-1,-4.8992798E-1,1.0127524E-1,4.4025728E-1,8.3157396E-1,-5.1137716E-1,9.187226E-1,6.085609E-2,9.277185E-1,8.510712E-1,3.8783112E-1,1.0821865E0,6.872474E-1,2.685244E-1,-5.4184955E-1,1.1547666E-1,-4.433545E-2,9.255469E-2,-6.998109E-2,1.037875E0,-6.37764E-2,9.609075E-1,-2.0014627E-1,3.623406E-1,1.1576791E0,1.1211177E0,8.7973773E-1,1.0850728E0,5.998363E-1,-4.863605E-1,1.1983633E-1,-6.3470244E-1,-3.2468265E-1,-3.525146E-1,1.5509774E-1,1.1148505E0,-5.9493404E-2,1.0865617E0,-8.261673E-2,1.1322401E-1,-4.0529025E-1,9.491651E-1,3.3082378E-1,1.2922277E-1,-7.0357E-2,-4.0751744E-2,1.1231824E0,1.2594453E-1,1.1469289E-1,-4.6980835E-2,1.0925236E0,3.4004438E-1,8.065461E-1,8.917123E-2,-6.92861E-2,6.631919E-2,-6.447502E-2,1.1359886E-1,-4.3202393E-2,-6.4788565E-2,3.22575E-2,8.166062E-2,8.492522E-3,1.1563088E-1,-5.0527703E-2,9.005697E-2,1.1871634E-1,-5.1756766E-2,1.10042654E-1,-7.1234256E-2,5.804601E-2,1.2888418E-1,-9.2459837E-4,1.9478822E-2,4.50463E-2,-6.1323684E-2,1.1748322E-1,1.1407888E-1,1.0102164E-1,-5.1316734E-2,7.383559E-2,9.344106E-2,1.1812104E-1,1.3677046E-2,1.1339295E-1,-2.0875761E-2,8.707469E-2],"categories":[],"categories_nodes":[],"categories_segments":[],"categories_sizes":[],"default_left":[0,0,0,0,0,0,0,0,0,0,0,0,0,0,0,0,0,0,0,0,0,0,0,0,0,0,0,0,0,0,0,0,0,0,0,0,0,0,0,0,0,0,0,0,0,0,0,0,0,0,0,0,0,0,0,0,0,0,0,0,0,0,0,0,0,0,0,0,0,0,0,0,0,0,0,0,0,0,0,0,0,0,0,0,0,0,0,0,0],"id":6,"left_children":[1,3,5,7,9,11,13,15,17,19,21,23,25,27,29,31,33,-1,-1,35,-1,37,-1,39,41,43,45,47,49,51,53,55,-1,57,59,61,63,65,-1,67,69,-1,71,73,75,-1,77,-1,79,81,-1,-1,83,85,87,-1,-1,-1,-1,-1,-1,-1,-1,-1,-1,-1,-1,-1,-1,-1,-1,-1,-1,-1,-1,-1,-1,-1,-1,-1,-1,-1,-1,-1,-1,-1,-1,-1,-1],"loss_changes":[1.0181643E3,2.194565E2,3.4876367E2,2.6243698E1,7.94091E1,1.24083984E2,1.3548633E2,2.012947E1,4.7403755E0,5.4776585E1,1.9778023E1,7.5579926E1,1.0014728E2,9.848145E0,8.2555176E1,2.3246668E1,1.611905E1,0E0,0E0,6.071409E1,0E0,1.3727661E1,0E0,7.762659E1,1.7567884E1,9.145618E1,2.7154266E1,4.085083E0,4.5445328E1,5.492584E0,1.05192566E2,5.8915267E0,0E0,7.8096466E0,3.883007E1,5.38086E1,8.86559E1,7.275017E0,0E0,8.807495E0,3.3749084E1,0E0,1.7054424E1,8.217241E1,7.6577515E1,0E0,1.22947E1,0E0,1.1307373E0,2.4004072E1,0E0,0E0,4.89859E0,1.4055914E2,7.142566E1,0E0,0E0,0E0,0E0,0E0,0E0,0E0,0E0,0E0,0E0,0E0,0E0,0E0,0E0,0E0,0E0,0E0,0E0,0E0,0E0,0E0,0E0,0E0,0E0,0E0,0E0,0E0,0E0,0E0,0E0,0E0,0E0,0E0,0E0],"parents":[2147483647,0,0,1,1,2,2,3,3,4,4,5,5,6,6,7,7,8,8,9,9,10,10,11,11,12,12,13,13,14,14,15,15,16,16,19,19,21,21,23,23,24,24,25,25,26,26,27,27,28,28,29,29,30,30,31,31,33,33,34,34,35,35,36,36,37,37,39,39,40,40,42,42,43,43,44,44,46,46,48,48,49,49,52,52,53,53,54,54],"right_children":[2,4,6,8,10,12,14,16,18,20,22,24,26,28,30,32,34,-1,-1,36,-1,38,-1,40,42,44,46,48,50,52,54,56,-1,58,60,62,64,66,-1,68,70,-1,72,74,76,-1,78,-1,80,82,-1,-1,84,86,88,-1,-1,-1,-1,-1,-1,-1,-1,-1,-1,-1,-1,-1,-1,-1,-1,-1,-1,-1,-1,-1,-1,-1,-1,-1,-1,-1,-1,-1,-1,-1,-1,-1,-1],"split_conditions":[1.16E1,1.8E0,1.96E1,4.6E1,2.64E1,4.7E0,1.52E2,1.0109E3,4.9E1,1.0336E3,1.37E1,4.8E1,3.5E1,2.7E1,1.0078E3,1.37E1,1.025E3,1.1547666E-1,-4.433545E-2,1E1,-6.998109E-2,5.6E0,-6.37764E-2,5E-1,1.29E1,1.24E1,1.89E1,2.14E1,3.6E1,1.98E1,1.014E3,6E0,1.1983633E-1,1E0,1.0254E3,1.77E2,1.5E1,5.21E1,-5.9493404E-2,1.0175E3,4.4E0,1.1322401E-1,2.78E1,1.0189E3,2.5E1,1.2922277E-1,2.86E1,-4.0751744E-2,1.0179E3,1.43E1,1.1469289E-1,-4.6980835E-2,1.79E2,9.194871E0,2.92E1,8.917123E-2,-6.92861E-2,6.631919E-2,-6.447502E-2,1.1359886E-1,-4.3202393E-2,-6.4788565E-2,3.22575E-2,8.166062E-2,8.492522E-3,1.1563088E-1,-5.0527703E-2,9.005697E-2,1.1871634E-1,-5.1756766E-2,1.10042654E-1,-7.1234256E-2,5.804601E-2,1.2888418E-1,-9.2459837E-4,1.9478822E-2,4.50463E-2,-6.1323684E-2,1.1748322E-1,1.1407888E-1,1.0102164E-1,-5.1316734E-2,7.383559E-2,9.344106E-2,1.1812104E-1,1.3677046E-2,1.1339295E-1,-2.0875761E-2,8.707469E-2],"split_indices":[1,3,2,0,4,7,6,8,0,8,3,0,3,0,8,7,8,0,0,0,0,2,0,4,1,1,2,1,0,2,8,6,0,0,8,6,0,4,0,8,7,0,3,8,0,0,1,0,8,7,0,0,6,5,3,0,0,0,0,0,0,0,0,0,0,0,0,0,0,0,0,0,0,0,0,0,0,0,0,0,0,0,0,0,0,0,0,0,0],"split_type":[0,0,0,0,0,0,0,0,0,0,0,0,0,0,0,0,0,0,0,0,0,0,0,0,0,0,0,0,0,0,0,0,0,0,0,0,0,0,0,0,0,0,0,0,0,0,0,0,0,0,0,0,0,0,0,0,0,0,0,0,0,0,0,0,0,0,0,0,0,0,0,0,0,0,0,0,0,0,0,0,0,0,0,0,0,0,0,0,0],"sum_hessian":[1.2770984E4,3.2299482E3,9.541036E3,8.520341E2,2.377914E3,5.77565E3,3.7653862E3,8.3988245E2,1.2151702E1,2.2680627E3,1.098513E2,6.5192224E2,5.1237275E3,1.3736484E3,2.3917378E3,3.1288273E1,8.085942E2,1.0486606E1,1.6650962E0,2.178172E3,8.989069E1,1.0294454E2,6.906756E0,5.903278E2,6.1594425E1,4.960936E3,1.6279141E2,1.1482919E3,2.253566E2,4.2879477E2,1.962943E3,1.7531973E1,1.37563E1,5.650683E2,2.4352586E2,2.6780188E2,1.9103701E3,9.861286E1,4.331683E0,5.2684717E2,6.348066E1,7.6152186E0,5.397921E1,2.5137454E2,4.7095615E3,1.4666945E2,1.6121971E1,1.2839777E0,1.1470079E3,5.936078E1,1.6599582E2,1.7490243E0,4.2704575E2,8.709642E2,1.0919788E3,1.8523278E0,1.5679646E1,3.8415577E0,5.6122675E2,1.6015005E1,2.2751085E2,1.8632129E2,8.14806E1,1.8219559E2,1.7281746E3,9.643151E1,2.181352E0,1.8843004E2,3.384171E2,4.682702E1,1.665364E1,4.1370144E1,1.2609065E1,1.8534166E2,6.603288E1,2.2049993E3,2.5045625E3,1.1580568E1,4.5414023E0,9.844737E2,1.625342E2,2.9126474E1,3.0234304E1,1.5760309E2,2.6944266E2,6.9434875E2,1.7661539E2,6.4808815E1,1.02717E3],"tree_param":{"num_deleted":"0","num_feature":"9","num_nodes":"89","size_leaf_vector":"1"}},{"base_weights":[1.9299307E-1,5.091467E-1,-7.4567065E-2,8.799145E-1,3.642512E-1,5.2991476E-2,-3.7631613E-1,2.4224266E-1,9.625705E-1,9.0485656E-1,3.2552198E-1,1.4696485E-1,-3.8858703E-1,-4.0638384E-1,1.3452837E-1,5.0011957E-1,-6.4957553E-1,9.742821E-1,-4.1765893E-1,1.0317881E0,-1.239984E-1,-5.870406E-1,3.479435E-1,-3.979529E-1,2.4707878E-1,-4.4586086E-1,1.1764868E0,-3.0261812E-1,-7.113908E-1,1.8288599E-1,1.1121871E0,-3.235276E-2,-6.9373555E-2,1.0806705E0,8.528957E-1,-7.111577E-2,7.8989916E-2,1.0820655E0,5.183054E-2,1.0798495E-1,-7.037165E-2,4.477525E-1,-7.071673E-2,1.0494752E-1,4.0807858E-1,-4.4964412E-1,9.70076E-1,-1.8793602E-1,3.537274E-1,-4.9853355E-1,7.771081E-1,1.373104E-1,-5.620752E-2,-4.8356918E-1,2.3782082E-1,-7.151734E-2,-4.7500288E-1,8.993154E-2,-3.0761687E-3,5.9481572E-2,1.1527413E-1,-5.487773E-2,1.0880317E-1,5.7282966E-2,1.12563826E-1,3.2522004E-2,1.1602645E-1,1.1448204E-1,-6.865039E-2,1.0263524E-1,-5.5497397E-2,-4.5380443E-2,3.0059189E-2,3.4732264E-2,7.0214845E-2,-2.7358035E-2,-6.554904E-2,1.3206713E-1,-5.761704E-2,-6.9109336E-2,8.09083E-3,7.0829046E-5,5.4827657E-2,-3.633988E-2,-6.413492E-2,1.37646E-1,-6.639167E-2,-2.2044182E-2,-6.596806E-2,7.938803E-2,-8.737465E-3,-6.499005E-2,4.611903E-2],"categories":[],"categories_nodes":[],"categories_segments":[],"categories_sizes":[],"default_left":[0,0,0,0,0,0,0,0,0,0,0,0,0,0,0,0,0,0,0,0,0,0,0,0,0,0,0,0,0,0,0,0,0,0,0,0,0,0,0,0,0,0,0,0,0,0,0,0,0,0,0,0,0,0,0,0,0,0,0,0,0,0,0,0,0,0,0,0,0,0,0,0,0,0,0,0,0,0,0,0,0,0,0,0,0,0,0,0,0,0,0,0,0],"id":7,"left_children":[1,3,5,7,9,11,13,15,17,19,21,23,25,27,-1,29,31,33,35,37,39,41,43,45,47,49,51,53,55,57,59,-1,-1,61,63,-1,-1,65,67,-1,-1,69,-1,71,73,75,77,79,81,83,85,-1,-1,87,89,-1,91,-1,-1,-1,-1,-1,-1,-1,-1,-1,-1,-1,-1,-1,-1,-1,-1,-1,-1,-1,-1,-1,-1,-1,-1,-1,-1,-1,-1,-1,-1,-1,-1,-1,-1,-1,-1],"loss_changes":[1.0540691E3,3.065266E2,2.5982266E2,8.43208E1,8.572565E1,1.9696292E2,1.0436844E2,4.296677E1,2.3357544E1,3.5923157E1,7.868024E1,2.1357886E2,7.518374E1,6.21969E1,0E0,2.7833015E1,3.806324E-1,1.7263306E1,5.043688E0,1.1970673E1,2.2390776E1,1.1795967E1,5.4667267E1,4.3412796E1,1.5346564E2,5.21929E1,1.0916885E1,1.4417874E2,1.0723877E-1,1.4767402E1,3.4440613E-1,0E0,0E0,9.553284E0,4.9957855E1,0E0,0E0,1.3361603E1,1.1246857E1,0E0,0E0,6.4976277E0,0E0,8.1477615E1,5.337259E1,2.1069351E1,1.2928131E1,8.8207375E1,1.8239862E2,1.4658722E1,2.9931784E1,0E0,0E0,5.101178E1,6.701013E1,0E0,2.0763004E0,0E0,0E0,0E0,0E0,0E0,0E0,0E0,0E0,0E0,0E0,0E0,0E0,0E0,0E0,0E0,0E0,0E0,0E0,0E0,0E0,0E0,0E0,0E0,0E0,0E0,0E0,0E0,0E0,0E0,0E0,0E0,0E0,0E0,0E0,0E0,0E0],"parents":[2147483647,0,0,1,1,2,2,3,3,4,4,5,5,6,6,7,7,8,8,9,9,10,10,11,11,12,12,13,13,15,15,16,16,17,17,18,18,19,19,20,20,21,21,22,22,23,23,24,24,25,25,26,26,27,27,28,28,29,29,30,30,33,33,34,34,37,37,38,38,41,41,43,43,44,44,45,45,46,46,47,47,48,48,49,49,50,50,53,53,54,54,56,56],"right_children":[2,4,6,8,10,12,14,16,18,20,22,24,26,28,-1,30,32,34,36,38,40,42,44,46,48,50,52,54,56,58,60,-1,-1,62,64,-1,-1,66,68,-1,-1,70,-1,72,74,76,78,80,82,84,86,-1,-1,88,90,-1,92,-1,-1,-1,-1,-1,-1,-1,-1,-1,-1,-1,-1,-1,-1,-1,-1,-1,-1,-1,-1,-1,-1,-1,-1,-1,-1,-1,-1,-1,-1,-1,-1,-1,-1,-1,-1],"split_conditions":[1.27E1,5.6E0,2.24E1,1.0143E3,4E0,1.0192E3,4.4E1,4.1E1,4.7E1,1.81E2,9.981E2,5.8E0,1.0247E3,4.2E1,1.3452837E-1,3.5E1,-1E-1,1.18E1,4.9E1,2.44E1,8.3E0,1.41E2,1.09E2,2.13E1,1.1E1,4.7E1,1.71E1,2.3E1,3.8E1,1.0068E3,-3.3E0,-3.235276E-2,-6.9373555E-2,4.3E1,2E-1,-7.111577E-2,7.8989916E-2,1E0,2E0,1.0798495E-1,-7.037165E-2,9.1E0,-7.071673E-2,8.5E0,1.88E1,2.42E1,3.39E1,1.06E2,1.0109E3,1.72E1,1.5E1,1.373104E-1,-5.620752E-2,9.194871E0,2.4E1,-7.151734E-2,1.0133E3,8.993154E-2,-3.0761687E-3,5.9481572E-2,1.1527413E-1,-5.487773E-2,1.0880317E-1,5.7282966E-2,1.12563826E-1,3.2522004E-2,1.1602645E-1,1.1448204E-1,-6.865039E-2,1.0263524E-1,-5.5497397E-2,-4.5380443E-2,3.0059189E-2,3.4732264E-2,7.0214845E-2,-2.7358035E-2,-6.554904E-2,1.3206713E-1,-5.761704E-2,-6.9109336E-2,8.09083E-3,7.0829046E-5,5.4827657E-2,-3.633988E-2,-6.413492E-2,1.37646E-1,-6.639167E-2,-2.2044182E-2,-6.596806E-2,7.938803E-2,-8.737465E-3,-6.499005E-2,4.611903E-2],"split_indices":[2,3,2,8,0,8,0,0,0,6,8,7,8,0,0,0,1,7,0,3,1,6,6,2,0,0,2,0,3,8,2,0,0,6,4,0,0,0,0,0,0,1,0,7,7,1,3,6,8,2,2,0,0,5,0,0,8,0,0,0,0,0,0,0,0,0,0,0,0,0,0,0,0,0,0,0,0,0,0,0,0,0,0,0,0,0,0,0,0,0,0,0,0],"split_type":[0,0,0,0,0,0,0,0,0,0,0,0,0,0,0,0,0,0,0,0,0,0,0,0,0,0,0,0,0,0,0,0,0,0,0,0,0,0,0,0,0,0,0,0,0,0,0,0,0,0,0,0,0,0,0,0,0,0,0,0,0,0,0,0,0,0,0,0,0,0,0,0,0,0,0,0,0,0,0,0,0,0,0,0,0,0,0,0,0,0,0,0,0],"sum_hessian":[1.2459454E4,5.710696E3,6.7487583E3,1.6032148E3,4.107481E3,4.744105E3,2.0046537E3,1.8441623E2,1.4187986E3,2.730951E2,3.834386E3,3.9122063E3,8.318987E2,1.9709943E3,3.3659416E1,1.4339232E2,4.1023914E1,1.4071526E3,1.1645974E1,2.4310054E2,2.9994558E1,9.134717E1,3.7430388E3,6.067431E2,3.3054631E3,8.0322E2,2.867869E1,1.4721498E3,4.988445E2,9.529821E1,4.809411E1,5.886707E0,3.5137207E1,7.4569226E2,6.614603E2,9.69956E0,1.9464144E0,2.3113766E2,1.1962873E1,9.468815E0,2.0525743E1,9.217613E0,8.2129555E1,7.430879E2,2.999951E3,5.852988E2,2.14443E1,6.506657E2,2.6547974E3,7.70622E2,3.2597973E1,2.5953741E1,2.7249475E0,1.1029595E3,3.691903E2,4.8899442E2,9.850097E0,2.1153704E1,7.414451E1,4.634648E0,4.345946E1,3.0227797E0,7.426695E2,3.278783E2,3.3358203E2,2.2128359E1,2.0900931E2,4.601105E0,7.3617682E0,5.8299913E0,3.3876224E0,1.9236943E2,5.5071844E2,2.4880842E3,5.118667E2,3.167264E2,2.685724E2,1.759965E1,3.8446503E0,2.2604295E2,4.2462274E2,9.435971E2,1.7112003E3,3.9777985E2,3.728422E2,2.30541E1,9.543871E0,4.43131E2,6.598284E2,1.3570457E2,2.3348572E2,8.557255E0,1.2928427E0],"tree_param":{"num_deleted":"0","num_feature":"9","num_nodes":"93","size_leaf_vector":"1"}},{"base_weights":[-6.9968855E-1],"categories":[],"categories_nodes":[],"categories_segments":[],"categories_sizes":[],"default_left":[0],"id":8,"left_children":[-1],"loss_changes":[0E0],"parents":[2147483647],"right_children":[-1],"split_conditions":[-6.996886E-2],"split_indices":[0],"split_type":[0],"sum_hessian":[1.1294057E4],"tree_param":{"num_deleted":"0","num_feature":"9","num_nodes":"1","size_leaf_vector":"1"}},{"base_weights":[3.9446023E-1,-5.018094E-2,5.414558E-1,-4.683953E-1,9.442791E-2,4.025039E-1,7.536766E-1,-4.8939195E-1,8.352275E-1,9.912776E-1,6.252293E-2,7.763325E-1,3.547587E-1,9.8324335E-1,6.216858E-1,2.4674775E-1,-5.193333E-1,1.0455352E-1,-4.305318E-2,-1.2186865E-1,1.0945503E-1,9.150295E-2,-6.782648E-2,8.859066E-1,-1.1201492E-1,2.114661E-1,4.7144264E-1,1.0181708E0,8.0093217E-1,9.8230594E-1,5.421732E-1,-4.7341615E-1,1.0965635E-1,-6.1300796E-1,-3.040795E-1,1.02307215E-1,-6.071517E-2,-3.3665982E-1,1.4745973E-1,1.0050794E0,-9.88635E-2,-4.3548068E-1,6.6241646E-1,5.3170484E-1,1.4965256E-2,9.206759E-1,4.1562414E-1,-3.989194E-2,1.0200444E0,1.1030609E-1,1.0431349E-1,-4.6604212E-2,9.8913324E-1,9.678277E-1,4.340379E-1,8.586134E-2,-6.79844E-2,6.253158E-2,-6.2321167E-2,-5.971256E-2,1.9767467E-2,-6.389569E-2,2.9893411E-2,7.869341E-2,7.185495E-3,8.335035E-2,1.0965472E-1,-5.139026E-2,1.00928105E-1,-6.179635E-2,9.7655974E-2,9.515959E-2,-5.7066966E-2,1.5343697E-3,8.213552E-2,1.2207388E-2,-5.625984E-2,1.1579193E-1,1.1857006E-2,3.8770095E-2,1.2605838E-1,1.0373991E-1,9.097513E-2,-2.441041E-2,1.1081361E-1,8.435454E-2,1.0712011E-1,1.4580674E-2,1.0577569E-1,1.961342E-2,6.525238E-2],"categories":[],"categories_nodes":[],"categories_segments":[],"categories_sizes":[],"default_left":[0,0,0,0,0,0,0,0,0,0,0,0,0,0,0,0,0,0,0,0,0,0,0,0,0,0,0,0,0,0,0,0,0,0,0,0,0,0,0,0,0,0,0,0,0,0,0,0,0,0,0,0,0,0,0,0,0,0,0,0,0,0,0,0,0,0,0,0,0,0,0,0,0,0,0,0,0,0,0,0,0,0,0,0,0,0,0,0,0,0,0],"id":9,"left_children":[1,3,5,7,9,11,13,15,17,19,21,23,25,27,29,31,33,-1,-1,35,-1,37,-1,39,41,43,45,47,49,51,53,55,-1,57,59,-1,-1,61,63,65,67,69,71,73,75,77,79,-1,81,83,-1,-1,85,87,89,-1,-1,-1,-1,-1,-1,-1,-1,-1,-1,-1,-1,-1,-1,-1,-1,-1,-1,-1,-1,-1,-1,-1,-1,-1,-1,-1,-1,-1,-1,-1,-1,-1,-1,-1,-1],"loss_changes":[8.4226465E2,1.9372556E2,2.852793E2,2.2935944E1,6.805429E1,1.0422241E2,1.15465576E2,1.7994507E1,4.0212145E0,9.526527E0,4.9434593E1,6.456079E1,8.6734924E1,8.078735E0,6.928998E1,2.0323082E1,1.552597E1,0E0,0E0,4.975481E0,0E0,5.3096725E1,0E0,6.929706E1,1.8725996E1,1.4678705E2,7.13761E1,3.5093994E0,3.8233368E1,4.798767E0,9.151605E1,5.5920234E0,0E0,7.2377777E0,3.5152225E1,0E0,0E0,4.942105E1,9.465062E1,7.341919E0,3.0212313E1,1.4136656E1,8.416967E0,1.326593E2,8.956565E1,5.9891724E1,5.9611053E1,0E0,1.2905273E0,2.171659E1,0E0,0E0,4.3169556E0,2.9697418E1,8.275537E1,0E0,0E0,0E0,0E0,0E0,0E0,0E0,0E0,0E0,0E0,0E0,0E0,0E0,0E0,0E0,0E0,0E0,0E0,0E0,0E0,0E0,0E0,0E0,0E0,0E0,0E0,0E0,0E0,0E0,0E0,0E0,0E0,0E0,0E0,0E0,0E0],"parents":[2147483647,0,0,1,1,2,2,3,3,4,4,5,5,6,6,7,7,8,8,9,9,10,10,11,11,12,12,13,13,14,14,15,15,16,16,19,19,21,21,23,23,24,24,25,25,26,26,27,27,28,28,29,29,30,30,31,31,33,33,34,34,37,37,38,38,39,39,40,40,41,41,42,42,43,43,44,44,45,45,46,46,48,48,49,49,52,52,53,53,54,54],"right_children":[2,4,6,8,10,12,14,16,18,20,22,24,26,28,30,32,34,-1,-1,36,-1,38,-1,40,42,44,46,48,50,52,54,56,-1,58,60,-1,-1,62,64,66,68,70,72,74,76,78,80,-1,82,84,-1,-1,86,88,90,-1,-1,-1,-1,-1,-1,-1,-1,-1,-1,-1,-1,-1,-1,-1,-1,-1,-1,-1,-1,-1,-1,-1,-1,-1,-1,-1,-1,-1,-1,-1,-1,-1,-1,-1,-1],"split_conditions":[1.16E1,1.8E0,1.96E1,4.6E1,9.95E2,4.7E0,1.52E2,1.0109E3,4.9E1,1.37E1,1.0336E3,4.5E1,2.5E1,2.7E1,1.0078E3,1.37E1,1.025E3,1.0455352E-1,-4.305318E-2,-8E-1,1.0945503E-1,1E1,-6.782648E-2,5E-1,4.3E0,1E1,2.7E1,2.14E1,3.6E1,1.98E1,4.9E0,6E0,1.0965635E-1,1E0,-6.3E0,1.02307215E-1,-6.071517E-2,1.77E2,1.5E1,1.0175E3,4.4E0,2.27E1,1.43E1,4E0,8.3E0,1.76E1,5.99E1,-3.989194E-2,1.0179E3,2.3E1,1.0431349E-1,-4.6604212E-2,1.79E2,2.73E1,1.014E3,8.586134E-2,-6.79844E-2,6.253158E-2,-6.2321167E-2,-5.971256E-2,1.9767467E-2,-6.389569E-2,2.9893411E-2,7.869341E-2,7.185495E-3,8.335035E-2,1.0965472E-1,-5.139026E-2,1.00928105E-1,-6.179635E-2,9.7655974E-2,9.515959E-2,-5.7066966E-2,1.5343697E-3,8.213552E-2,1.2207388E-2,-5.625984E-2,1.1579193E-1,1.1857006E-2,3.8770095E-2,1.2605838E-1,1.0373991E-1,9.097513E-2,-2.441041E-2,1.1081361E-1,8.435454E-2,1.0712011E-1,1.4580674E-2,1.0577569E-1,1.961342E-2,6.525238E-2],"split_indices":[1,3,2,0,8,7,6,8,0,7,8,0,0,0,8,7,8,0,0,1,0,0,0,4,7,0,0,1,0,2,7,6,0,0,1,0,0,6,0,8,7,1,2,0,4,7,4,0,8,2,0,0,6,1,8,0,0,0,0,0,0,0,0,0,0,0,0,0,0,0,0,0,0,0,0,0,0,0,0,0,0,0,0,0,0,0,0,0,0,0,0],"split_type":[0,0,0,0,0,0,0,0,0,0,0,0,0,0,0,0,0,0,0,0,0,0,0,0,0,0,0,0,0,0,0,0,0,0,0,0,0,0,0,0,0,0,0,0,0,0,0,0,0,0,0,0,0,0,0,0,0,0,0,0,0,0,0,0,0,0,0,0,0,0,0,0,0,0,0,0,0,0,0,0,0,0,0,0,0,0,0,0,0,0,0],"sum_hessian":[1.2885076E4,3.2015354E3,9.683541E3,8.2201044E2,2.379525E3,5.853711E3,3.8298298E3,8.095954E2,1.241507E1,8.0709496E1,2.2988154E3,6.612319E2,5.192479E3,1.3957697E3,2.4340603E3,3.1359049E1,7.782363E2,1.0795386E1,1.6196833E0,6.836865E0,7.387263E1,2.2131135E3,8.570172E1,5.886295E2,7.26023E1,2.3317756E3,2.8607036E3,1.1675112E3,2.2825836E2,4.3767636E2,1.9963838E3,1.7214117E1,1.4144932E1,5.409686E2,2.3726773E2,1.705303E0,5.131562E0,2.5522209E2,1.9578915E3,5.250674E2,6.3562157E1,5.152072E1,2.1081583E1,8.860568E2,1.4457188E3,3.1445358E2,2.54625E3,1.2618253E0,1.1662495E3,5.9643654E1,1.686147E2,1.7378925E0,4.3593848E2,4.0281754E2,1.5935663E3,1.8858426E0,1.5328274E1,3.9284658E0,5.3704016E2,1.4966617E2,8.760157E1,1.729564E2,8.2265686E1,2.0601163E2,1.7518799E3,1.8609718E2,3.389702E2,4.6632786E1,1.6929369E1,4.6122513E1,5.3982086E0,1.7261703E1,3.819879E0,3.1879404E2,5.672628E2,1.220219E3,2.2549977E2,2.4233359E2,7.212E1,2.4662085E3,8.0041405E1,1.0004272E3,1.658223E2,4.456897E1,1.5074683E1,1.6121786E2,2.747206E2,3.998113E1,3.6283643E2,7.637912E2,8.297751E2],"tree_param":{"num_deleted":"0","num_feature":"9","num_nodes":"91","size_leaf_vector":"1"}},{"base_weights":[1.7965628E-1,4.6581072E-1,-6.795239E-2,7.966006E-1,3.3574873E-1,-3.672642E-1,5.0879937E-2,2.1741115E-1,8.7043095E-1,8.2489914E-1,3.0042502E-1,-9.0557225E-2,-5.7286894E-1,1.7947711E-1,-2.3606034E-1,4.5226687E-1,-6.326177E-1,8.809062E-1,-4.0580672E-1,9.388987E-1,-1.2487183E-1,-5.70061E-1,3.208554E-1,-6.4431244E-1,1.0992655E-1,-6.29374E-1,-3.0788738E-1,-5.314532E-1,2.3245004E-1,-2.9243582E-1,1.1003327E0,1.5721788E-1,1.0170256E0,-3.051501E-2,-6.776366E-2,9.6031386E-1,7.4239653E-1,-6.917934E-2,7.358991E-2,9.841646E-1,4.1273456E-2,1.00139275E-1,-6.904572E-2,4.1496193E-1,-6.893848E-2,2.647477E-1,5.427055E-1,-7.201063E-2,-4.5272738E-1,-4.7421545E-2,1.0143105E0,6.996458E-2,-6.323299E-1,4.6632895E-1,-6.748094E-2,-6.389057E-1,1.0769093E-1,2.9684058E-1,-3.0987316E-1,-5.8094632E-2,-7.0160717E-1,1.2176158E0,-5.9060372E-2,3.429816E-2,-5.712357E-2,5.4933198E-2,1.0538355E-1,5.921294E-2,9.885844E-2,-8.072106E-2,8.371296E-2,2.8562415E-2,1.05595365E-1,1.0589661E-1,-6.735465E-2,9.5486134E-2,-5.456833E-2,2.9533325E-2,-4.1513305E-2,6.1462905E-2,-7.746165E-2,2.003382E-2,-6.2608495E-2,-3.4071986E-2,5.7142466E-2,1.1637306E-1,-6.7354396E-2,-6.5966785E-2,-4.736112E-2,-5.6844987E-2,8.059432E-2,-6.8727314E-2,2.456393E-2,-6.9551724E-3,4.456421E-2,-5.370457E-2,8.648463E-2,-4.667866E-2,1.5721163E-2,-7.052209E-2,-4.5490887E-2,1.26523E-1,-4.3080267E-2],"categories":[],"categories_nodes":[],"categories_segments":[],"categories_sizes":[],"default_left":[0,0,0,0,0,0,0,0,0,0,0,0,0,0,0,0,0,0,0,0,0,0,0,0,0,0,0,0,0,0,0,0,0,0,0,0,0,0,0,0,0,0,0,0,0,0,0,0,0,0,0,0,0,0,0,0,0,0,0,0,0,0,0,0,0,0,0,0,0,0,0,0,0,0,0,0,0,0,0,0,0,0,0,0,0,0,0,0,0,0,0,0,0,0,0,0,0,0,0,0,0,0,0],"id":10,"left_children":[1,3,5,7,9,11,13,15,17,19,21,23,25,27,29,31,33,35,37,39,41,43,45,47,49,51,53,55,57,59,61,63,65,-1,-1,67,69,-1,-1,71,73,-1,-1,75,-1,77,79,-1,81,83,85,-1,87,89,-1,91,-1,93,95,97,99,101,-1,-1,-1,-1,-1,-1,-1,-1,-1,-1,-1,-1,-1,-1,-1,-1,-1,-1,-1,-1,-1,-1,-1,-1,-1,-1,-1,-1,-1,-1,-1,-1,-1,-1,-1,-1,-1,-1,-1,-1,-1],"loss_changes":[8.8347327E2,2.4858447E2,2.3780052E2,6.958411E1,7.151816E1,1.0804413E2,1.7665456E2,3.738013E1,1.9700562E1,3.034346E1,6.910251E1,9.012322E1,1.6124634E1,1.246136E2,1.11949036E2,2.4196465E1,3.9235878E-1,1.5074707E1,4.5786486E0,1.0091583E1,2.0310696E1,1.0773605E1,4.699582E1,2.8069687E0,8.4916084E1,3.9676208E0,5.528782E1,4.0356544E1,1.0754556E2,1.363535E2,1.2654541E1,1.3348093E1,2.8146362E-1,0E0,0E0,8.875488E0,7.810593E1,0E0,0E0,1.1600952E1,1.0181414E1,0E0,0E0,5.8451366E0,0E0,6.301709E1,7.281438E1,0E0,7.354512E0,9.2574234E1,2.3085602E1,0E0,3.5748596E0,2.2532658E1,0E0,9.400848E0,0E0,1.5001648E2,8.774532E1,7.975649E1,1.408844E-1,4.9879837E0,0E0,0E0,0E0,0E0,0E0,0E0,0E0,0E0,0E0,0E0,0E0,0E0,0E0,0E0,0E0,0E0,0E0,0E0,0E0,0E0,0E0,0E0,0E0,0E0,0E0,0E0,0E0,0E0,0E0,0E0,0E0,0E0,0E0,0E0,0E0,0E0,0E0,0E0,0E0,0E0,0E0],"parents":[2147483647,0,0,1,1,2,2,3,3,4,4,5,5,6,6,7,7,8,8,9,9,10,10,11,11,12,12,13,13,14,14,15,15,16,16,17,17,18,18,19,19,20,20,21,21,22,22,23,23,24,24,25,25,26,26,27,27,28,28,29,29,30,30,31,31,32,32,35,35,36,36,39,39,40,40,43,43,45,45,46,46,48,48,49,49,50,50,52,52,53,53,55,55,57,57,58,58,59,59,60,60,61,61],"right_children":[2,4,6,8,10,12,14,16,18,20,22,24,26,28,30,32,34,36,38,40,42,44,46,48,50,52,54,56,58,60,62,64,66,-1,-1,68,70,-1,-1,72,74,-1,-1,76,-1,78,80,-1,82,84,86,-1,88,90,-1,92,-1,94,96,98,100,102,-1,-1,-1,-1,-1,-1,-1,-1,-1,-1,-1,-1,-1,-1,-1,-1,-1,-1,-1,-1,-1,-1,-1,-1,-1,-1,-1,-1,-1,-1,-1,-1,-1,-1,-1,-1,-1,-1,-1,-1,-1],"split_conditions":[1.27E1,5.6E0,1.48E2,1.0143E3,4E0,1.96E1,3.28E1,4.1E1,4.7E1,1.81E2,9.981E2,2.29E1,2.7E1,3.6E0,4.4E1,3.5E1,-1E-1,1.31E1,4.9E1,2.44E1,8.3E0,1.41E2,1.91E1,4E1,9.2E0,2.14E1,3.6E1,9E-1,1.0199E3,4.2E1,2.35E2,1.87E1,-3.3E0,-3.051501E-2,-6.776366E-2,4.9E1,1.37E1,-6.917934E-2,7.358991E-2,1E0,2E0,1.00139275E-1,-6.904572E-2,9.1E0,-6.893848E-2,3.48E2,1.73E1,-7.201063E-2,1.16E1,2.34E1,2.4E1,6.996458E-2,1.0179E3,2.62E1,-6.748094E-2,4.5E1,1.0769093E-1,1.0107E3,1.0229E3,1.3E1,3.8E1,4.9E1,-5.9060372E-2,3.429816E-2,-5.712357E-2,5.4933198E-2,1.0538355E-1,5.921294E-2,9.885844E-2,-8.072106E-2,8.371296E-2,2.8562415E-2,1.05595365E-1,1.0589661E-1,-6.735465E-2,9.5486134E-2,-5.456833E-2,2.9533325E-2,-4.1513305E-2,6.1462905E-2,-7.746165E-2,2.003382E-2,-6.2608495E-2,-3.4071986E-2,5.7142466E-2,1.1637306E-1,-6.7354396E-2,-6.5966785E-2,-4.736112E-2,-5.6844987E-2,8.059432E-2,-6.8727314E-2,2.456393E-2,-6.9551724E-3,4.456421E-2,-5.370457E-2,8.648463E-2,-4.667866E-2,1.5721163E-2,-7.052209E-2,-4.5490887E-2,1.26523E-1,-4.3080267E-2],"split_indices":[2,3,6,8,0,2,3,0,0,6,8,3,0,7,0,0,1,7,0,3,1,6,7,6,4,1,0,4,8,0,6,7,2,0,0,6,7,0,0,0,0,0,0,1,0,6,4,0,7,1,0,0,8,3,0,0,0,8,8,0,3,0,0,0,0,0,0,0,0,0,0,0,0,0,0,0,0,0,0,0,0,0,0,0,0,0,0,0,0,0,0,0,0,0,0,0,0,0,0,0,0,0,0],"split_type":[0,0,0,0,0,0,0,0,0,0,0,0,0,0,0,0,0,0,0,0,0,0,0,0,0,0,0,0,0,0,0,0,0,0,0,0,0,0,0,0,0,0,0,0,0,0,0,0,0,0,0,0,0,0,0,0,0,0,0,0,0,0,0,0,0,0,0,0,0,0,0,0,0,0,0,0,0,0,0,0,0,0,0,0,0,0,0,0,0,0,0,0,0,0,0,0,0,0,0,0,0,0,0],"sum_hessian":[1.2467424E4,5.783135E3,6.684289E3,1.6306747E3,4.15246E3,1.8990128E3,4.785276E3,1.8481E2,1.4458647E3,2.781656E2,3.8742944E3,8.101445E2,1.0888684E3,3.304626E3,1.4806499E3,1.4516899E2,3.9641014E1,1.434401E3,1.1463709E1,2.4836604E2,2.9799553E1,8.8227875E1,3.7860667E3,2.1475554E2,5.95389E2,8.9635345E2,1.9251492E2,2.2853316E2,3.0760928E3,1.4214668E3,5.9183144E1,9.619293E1,4.897605E1,5.7311068E0,3.3909904E1,9.079435E2,5.264575E2,9.482501E0,1.9812076E0,2.363508E2,1.201523E1,9.704398E0,2.0095154E1,9.26524E0,7.896263E1,3.0235735E3,7.624931E2,1.5190219E2,6.2853348E1,5.0795978E2,8.742918E1,1.4661255E0,8.948873E2,6.1814198E1,1.3070073E2,2.1478635E2,1.37468195E1,2.7500317E3,3.260612E2,9.0455225E2,5.169145E2,5.560622E1,3.5769198E0,7.7068726E1,1.9124208E1,4.735245E0,4.4240807E1,6.630882E1,8.416347E2,2.9896742E1,4.9656076E2,2.2490133E1,2.1386067E2,4.758742E0,7.2564883E0,5.93544E0,3.3297997E0,2.8939502E3,1.296233E2,7.235234E2,3.8969723E1,1.3152005E1,4.9701344E1,3.449312E2,1.6302858E2,8.0604095E1,6.8250823E0,7.607061E2,1.3418121E2,1.5107868E1,4.670633E1,2.0386206E2,1.0924278E1,7.9443524E2,1.9555964E3,2.7367877E2,5.238241E1,3.1170645E2,5.928458E2,5.076201E2,9.294446E0,5.427107E1,1.3351524E0],"tree_param":{"num_deleted":"0","num_feature":"9","num_nodes":"103","size_leaf_vector":"1"}},{"base_weights":[-6.798446E-1],"categories":[],"categories_nodes":[],"categories_segments":[],"categories_sizes":[],"default_left":[0],"id":11,"left_children":[-1],"loss_changes":[0E0],"parents":[2147483647],"right_children":[-1],"split_conditions":[-6.798446E-2],"split_indices":[0],"split_type":[0],"sum_hessian":[1.0770689E4],"tree_param":{"num_deleted":"0","num_feature":"9","num_nodes":"1","size_leaf_vector":"1"}},{"base_weights":[3.634187E-1,-4.5582317E-2,4.9619192E-1,-4.4778204E-1,8.839696E-2,3.735304E-1,6.9489294E-1,-3.249492E-1,-6.6337086E-2,5.383185E-2,7.8413016E-1,7.201536E-1,3.3016363E-1,8.582685E-1,5.512202E-1,7.908419E-1,-3.8300043E-1,9.023053E-2,-5.180296E-1,8.8100785E-1,-6.286362E-2,8.1121784E-1,-1.9715606E-1,5.14574E-1,2.5864488E-1,9.6372104E-1,6.860704E-1,8.8034564E-1,4.6523973E-1,1.06989525E-1,-5.865714E-2,-5.421942E-1,-3.485777E-2,1.2027879E-1,-6.590479E-2,6.083555E-1,-6.348515E-1,9.4866914E-1,-5.8690738E-2,9.1488844E-1,-9.390646E-2,9.9248305E-2,-3.918161E-1,9.727171E-1,3.9764768E-1,3.415715E-1,-5.8350436E-2,-3.8802963E-2,9.656296E-1,-2.229183E-1,7.7717644E-1,-2.156784E-1,9.4142574E-1,3.4338874E-1,8.8530135E-1,-5.9653956E-2,9.587433E-2,1.5035525E-1,-1.65411E-2,1.1532962E-3,3.223994E-2,1.1697787E-1,-6.374911E-2,-6.959827E-2,1.781782E-2,9.852191E-2,-4.9945828E-2,6.456558E-2,9.731569E-2,6.2106647E-2,-7.016958E-2,-6.885255E-2,5.0358087E-2,4.657052E-2,1.0896857E-1,-6.6011534E-3,6.3470244E-2,3.7273273E-2,-4.666176E-2,-1.20863365E-2,1.163759E-1,9.418683E-2,1.0966563E-1,-8.104259E-2,1.23724714E-1,8.574607E-2,1.1390352E-2,9.414202E-2,-7.9531E-2,9.9112414E-2,-1.7352516E-2,2.009371E-2,9.3581535E-2,9.28302E-2,-6.8634786E-2],"categories":[],"categories_nodes":[],"categories_segments":[],"categories_sizes":[],"default_left":[0,0,0,0,0,0,0,0,0,0,0,0,0,0,0,0,0,0,0,0,0,0,0,0,0,0,0,0,0,0,0,0,0,0,0,0,0,0,0,0,0,0,0,0,0,0,0,0,0,0,0,0,0,0,0,0,0,0,0,0,0,0,0,0,0,0,0,0,0,0,0,0,0,0,0,0,0,0,0,0,0,0,0,0,0,0,0,0,0,0,0,0,0,0,0],"id":12,"left_children":[1,3,5,7,9,11,13,15,-1,17,19,21,23,25,27,29,31,33,35,37,-1,39,41,43,45,47,49,51,53,-1,-1,55,57,59,-1,61,63,65,-1,67,69,-1,71,73,75,77,79,-1,81,83,85,87,89,91,93,-1,-1,-1,-1,-1,-1,-1,-1,-1,-1,-1,-1,-1,-1,-1,-1,-1,-1,-1,-1,-1,-1,-1,-1,-1,-1,-1,-1,-1,-1,-1,-1,-1,-1,-1,-1,-1,-1,-1,-1],"loss_changes":[7.021406E2,1.708335E2,2.376399E2,2.0761856E1,5.715281E1,9.051514E1,8.694971E1,3.311675E1,0E0,4.7231552E1,1.5950424E1,5.616986E1,7.066217E1,3.0951904E1,5.5749023E1,1.0382754E1,2.670665E1,4.8081696E1,1.8255524E1,1.1054192E1,0E0,5.733896E1,1.4597469E1,7.991403E1,1.0174722E2,3.1537476E0,5.5218597E1,2.7645935E1,8.034235E1,0E0,0E0,2.7557999E1,3.0853512E1,4.5070343E1,0E0,1.00283985E1,6.2635155E0,5.85997E0,0E0,7.9613037E0,2.8077612E1,0E0,1.4545696E1,1.7526855E1,1.3148866E2,7.742709E1,6.150998E1,0E0,2.3171997E0,5.36135E1,3.2084534E1,1.5807488E1,2.1698029E1,1.0301895E2,2.4537048E1,0E0,0E0,0E0,0E0,0E0,0E0,0E0,0E0,0E0,0E0,0E0,0E0,0E0,0E0,0E0,0E0,0E0,0E0,0E0,0E0,0E0,0E0,0E0,0E0,0E0,0E0,0E0,0E0,0E0,0E0,0E0,0E0,0E0,0E0,0E0,0E0,0E0,0E0,0E0,0E0],"parents":[2147483647,0,0,1,1,2,2,3,3,4,4,5,5,6,6,7,7,9,9,10,10,11,11,12,12,13,13,14,14,15,15,16,16,17,17,18,18,19,19,21,21,22,22,23,23,24,24,25,25,26,26,27,27,28,28,31,31,32,32,33,33,35,35,36,36,37,37,39,39,40,40,42,42,43,43,44,44,45,45,46,46,48,48,49,49,50,50,51,51,52,52,53,53,54,54],"right_children":[2,4,6,8,10,12,14,16,-1,18,20,22,24,26,28,30,32,34,36,38,-1,40,42,44,46,48,50,52,54,-1,-1,56,58,60,-1,62,64,66,-1,68,70,-1,72,74,76,78,80,-1,82,84,86,88,90,92,94,-1,-1,-1,-1,-1,-1,-1,-1,-1,-1,-1,-1,-1,-1,-1,-1,-1,-1,-1,-1,-1,-1,-1,-1,-1,-1,-1,-1,-1,-1,-1,-1,-1,-1,-1,-1,-1,-1,-1,-1],"split_conditions":[1.16E1,1.8E0,2E1,7E-1,2.64E1,4.7E0,1.7582372E2,6.1E1,-6.6337086E-2,7.7E0,1.37E1,4.8E1,1.61E2,2E1,4.9E0,1.43E1,1.28E1,1.0336E3,6.3E0,5.6E0,-6.286362E-2,5E-1,1.29E1,1.1E1,1.8E0,2.14E1,2.4E1,2.68E1,9.194871E0,1.06989525E-1,-5.865714E-2,4.6E1,1.37E1,1.0226E3,-6.590479E-2,6.7E0,9.5E0,5.21E1,-5.8690738E-2,1.01E1,1.88E1,9.9248305E-2,2.78E1,3E0,2.4E1,2.77E1,2.84E1,-3.8802963E-2,1.52E2,2.28E1,2.16E1,7E0,2.93E1,1.0168E3,4.1E1,-5.9653956E-2,9.587433E-2,1.5035525E-1,-1.65411E-2,1.1532962E-3,3.223994E-2,1.1697787E-1,-6.374911E-2,-6.959827E-2,1.781782E-2,9.852191E-2,-4.9945828E-2,6.456558E-2,9.731569E-2,6.2106647E-2,-7.016958E-2,-6.885255E-2,5.0358087E-2,4.657052E-2,1.0896857E-1,-6.6011534E-3,6.3470244E-2,3.7273273E-2,-4.666176E-2,-1.20863365E-2,1.163759E-1,9.418683E-2,1.0966563E-1,-8.104259E-2,1.23724714E-1,8.574607E-2,1.1390352E-2,9.414202E-2,-7.9531E-2,9.9112414E-2,-1.7352516E-2,2.009371E-2,9.3581535E-2,9.28302E-2,-6.8634786E-2],"split_indices":[1,3,2,4,4,7,6,6,0,4,3,0,6,0,7,7,7,8,7,2,0,4,1,0,4,1,0,1,5,0,0,0,7,8,0,1,1,4,0,2,1,0,3,0,0,7,7,0,6,2,7,0,1,8,0,0,0,0,0,0,0,0,0,0,0,0,0,0,0,0,0,0,0,0,0,0,0,0,0,0,0,0,0,0,0,0,0,0,0,0,0,0,0,0,0],"split_type":[0,0,0,0,0,0,0,0,0,0,0,0,0,0,0,0,0,0,0,0,0,0,0,0,0,0,0,0,0,0,0,0,0,0,0,0,0,0,0,0,0,0,0,0,0,0,0,0,0,0,0,0,0,0,0,0,0,0,0,0,0,0,0,0,0,0,0,0,0,0,0,0,0,0,0,0,0,0,0,0,0,0,0,0,0,0,0,0,0,0,0,0,0,0,0],"sum_hessian":[1.2928311E4,3.1685164E3,9.759795E3,7.9115686E2,2.3773594E3,6.03634E3,3.7234548E3,5.055974E2,2.8555948E2,2.265865E3,1.1149433E2,6.6950366E2,5.366836E3,1.739936E3,1.9835189E3,2.4379559E1,4.8121786E2,2.131066E3,1.3479903E2,1.046917E2,6.802632E0,6.0914734E2,6.0356308E1,1.4980178E3,3.8688184E3,1.0762523E3,6.636837E2,4.089305E2,1.5745884E3,2.0458153E1,3.921407E0,3.2983716E2,1.5138069E2,2.0497063E3,8.135975E1,1.2271444E1,1.2252759E2,1.0041687E2,4.274831E0,5.4653754E2,6.260977E1,7.9109626E0,5.2445343E1,3.030972E2,1.1949207E3,3.0665303E3,8.022881E2,1.232147E0,1.0750201E3,6.032808E1,6.0335565E2,2.145262E1,3.874779E2,1.2219454E3,3.52643E2,3.1889334E2,1.0943815E1,1.1018957E1,1.4036172E2,1.333375E3,7.163313E2,8.501445E0,3.7699993E0,1.1409297E2,8.434615E0,9.8256584E1,2.160283E0,9.9388504E1,4.4714905E2,2.875821E1,3.3851562E1,3.9565495E1,1.2879852E1,5.7751026E1,2.4534616E2,4.0449124E2,7.904294E2,2.953203E3,1.13327385E2,7.64104E2,3.8184086E1,9.1692676E2,1.5809341E2,4.3336372E1,1.6991709E1,5.379482E2,6.540741E1,6.951469E0,1.450115E1,3.7104962E2,1.6428291E1,9.861583E2,2.3578706E2,3.4365E2,8.993006E0],"tree_param":{"num_deleted":"0","num_feature":"9","num_nodes":"95","size_leaf_vector":"1"}},{"base_weights":[1.6810514E-1,4.2788872E-1,-6.1160453E-2,8.389577E-1,3.411117E-1,-3.4927186E-1,5.014112E-2,8.5211545E-1,-3.4621686E-1,-2.5891945E-1,3.6246347E-1,-8.773815E-2,-5.5160606E-1,1.6951063E-1,-2.2157013E-1,1.4796303E-1,8.6676025E-1,-6.2585786E-2,6.890887E-2,2.4698526E-1,-6.1123204E-1,7.868189E-1,3.3504152E-1,-6.264444E-1,1.0300307E-1,-6.078057E-1,-2.9227728E-1,-5.1200086E-1,2.1776247E-1,-2.7611023E-1,1.0167456E0,7.4018025E-1,-6.285102E-2,9.2630136E-1,7.177169E-1,-5.1610774E-1,9.7311246E-1,8.519941E-2,-7.1333244E-2,8.944872E-1,-1.2684786E-1,2.8169674E-1,6.0305125E-1,-7.0226066E-2,-4.3694463E-1,-5.351982E-1,2.9322714E-1,6.569257E-2,-6.1079115E-1,4.2742926E-1,-6.552121E-2,-6.1853707E-1,9.8391265E-2,2.657319E-1,-4.6196046E-1,-5.1376585E-2,-6.831919E-1,1.1230417E0,-5.7744034E-2,-5.0506957E-2,9.964382E-2,9.3100004E-2,-5.2903917E-2,-6.858963E-2,7.944799E-2,-6.992736E-2,8.612667E-2,1.1231174E-1,-5.8273036E-2,9.379086E-2,2.7543884E-3,9.3621254E-2,-6.790314E-2,2.584566E-2,8.343994E-2,6.699617E-2,-3.8864795E-2,1.7472742E-2,-6.053207E-2,-7.130956E-2,8.3959706E-2,7.965664E-2,-7.801795E-3,-6.3899465E-2,-4.497938E-2,7.082041E-2,-6.653908E-2,-6.671321E-2,2.2378126E-2,3.6489945E-2,-1.7449386E-2,-7.127666E-2,1.245439E-1,-4.473633E-2,1.5165741E-2,-6.867956E-2,-4.427247E-2,1.1663362E-1,-4.2250127E-2],"categories":[],"categories_nodes":[],"categories_segments":[],"categories_sizes":[],"default_left":[0,0,0,0,0,0,0,0,0,0,0,0,0,0,0,0,0,0,0,0,0,0,0,0,0,0,0,0,0,0,0,0,0,0,0,0,0,0,0,0,0,0,0,0,0,0,0,0,0,0,0,0,0,0,0,0,0,0,0,0,0,0,0,0,0,0,0,0,0,0,0,0,0,0,0,0,0,0,0,0,0,0,0,0,0,0,0,0,0,0,0,0,0,0,0,0,0,0,0],"id":13,"left_children":[1,3,5,7,9,11,13,15,17,19,21,23,25,27,29,31,33,-1,-1,35,37,39,41,43,45,47,49,51,53,55,57,59,-1,61,63,65,67,-1,-1,69,71,73,75,-1,77,79,81,-1,83,85,-1,87,-1,89,91,93,95,97,-1,-1,-1,-1,-1,-1,-1,-1,-1,-1,-1,-1,-1,-1,-1,-1,-1,-1,-1,-1,-1,-1,-1,-1,-1,-1,-1,-1,-1,-1,-1,-1,-1,-1,-1,-1,-1,-1,-1,-1,-1],"loss_changes":[7.40505E2,2.0762476E2,2.1182462E2,1.6127014E1,6.177289E1,9.7357346E1,1.5459782E2,1.0229309E1,3.8644872E0,2.9739939E1,5.3838135E1,8.268768E1,1.4944946E1,1.0900432E2,9.854605E1,1.0429729E1,8.064941E0,0E0,0E0,3.865879E1,1.5270611E1,2.7801315E1,6.2290405E1,2.7160187E0,7.235307E1,3.6177368E0,4.90581E1,3.5549904E1,1.0097797E2,1.2752918E2,1.1085701E1,4.5726748E0,0E0,5.275757E0,3.127919E1,9.238008E0,8.970459E0,0E0,0E0,9.457108E0,1.8566874E1,4.660974E1,4.8324097E1,0E0,6.5705776E0,3.40825E1,8.579131E1,0E0,3.5739746E0,1.9865328E1,0E0,8.552124E0,0E0,1.2622507E2,8.835969E1,7.238521E1,1.2565613E-1,4.3792343E0,0E0,0E0,0E0,0E0,0E0,0E0,0E0,0E0,0E0,0E0,0E0,0E0,0E0,0E0,0E0,0E0,0E0,0E0,0E0,0E0,0E0,0E0,0E0,0E0,0E0,0E0,0E0,0E0,0E0,0E0,0E0,0E0,0E0,0E0,0E0,0E0,0E0,0E0,0E0,0E0,0E0],"parents":[2147483647,0,0,1,1,2,2,3,3,4,4,5,5,6,6,7,7,8,8,9,9,10,10,11,11,12,12,13,13,14,14,15,15,16,16,19,19,20,20,21,21,22,22,23,23,24,24,25,25,26,26,27,27,28,28,29,29,30,30,31,31,33,33,34,34,35,35,36,36,39,39,40,40,41,41,42,42,44,44,45,45,46,46,48,48,49,49,51,51,53,53,54,54,55,55,56,56,57,57],"right_children":[2,4,6,8,10,12,14,16,18,20,22,24,26,28,30,32,34,-1,-1,36,38,40,42,44,46,48,50,52,54,56,58,60,-1,62,64,66,68,-1,-1,70,72,74,76,-1,78,80,82,-1,84,86,-1,88,-1,90,92,94,96,98,-1,-1,-1,-1,-1,-1,-1,-1,-1,-1,-1,-1,-1,-1,-1,-1,-1,-1,-1,-1,-1,-1,-1,-1,-1,-1,-1,-1,-1,-1,-1,-1,-1,-1,-1,-1,-1,-1,-1,-1,-1],"split_conditions":[1.27E1,1.8E0,1.48E2,4.6E1,1.0021E3,1.96E1,3.28E1,1.0092E3,4.9E1,1.6E1,4E0,2.29E1,2.7E1,3.6E0,4.4E1,1.24E1,1.025E3,-6.2585786E-2,6.890887E-2,1.6E0,4.5E0,1.81E2,3.15E2,4E1,1E1,2.14E1,3.6E1,9E-1,2.59E1,4.2E1,2.35E2,6E0,-6.285102E-2,5.08E2,1.0254E3,9.194871E0,9.194871E0,8.519941E-2,-7.1333244E-2,2.44E1,8.3E0,2.73E1,1.14E1,-7.0226066E-2,1.16E1,1.06E2,2.4E1,6.569257E-2,1.0179E3,2.3E1,-6.552121E-2,4.5E1,9.8391265E-2,1.0186E3,2.7E1,1.3E1,3.8E1,4.9E1,-5.7744034E-2,-5.0506957E-2,9.964382E-2,9.3100004E-2,-5.2903917E-2,-6.858963E-2,7.944799E-2,-6.992736E-2,8.612667E-2,1.1231174E-1,-5.8273036E-2,9.379086E-2,2.7543884E-3,9.3621254E-2,-6.790314E-2,2.584566E-2,8.343994E-2,6.699617E-2,-3.8864795E-2,1.7472742E-2,-6.053207E-2,-7.130956E-2,8.3959706E-2,7.965664E-2,-7.801795E-3,-6.3899465E-2,-4.497938E-2,7.082041E-2,-6.653908E-2,-6.671321E-2,2.2378126E-2,3.6489945E-2,-1.7449386E-2,-7.127666E-2,1.245439E-1,-4.473633E-2,1.5165741E-2,-6.867956E-2,-4.427247E-2,1.1663362E-1,-4.2250127E-2],"split_indices":[2,3,6,0,8,2,3,8,0,7,0,3,0,7,0,7,8,0,0,4,1,6,6,6,0,1,0,4,7,0,6,6,0,5,8,5,5,0,0,3,1,3,2,0,7,6,0,0,8,2,0,0,0,8,0,0,3,0,0,0,0,0,0,0,0,0,0,0,0,0,0,0,0,0,0,0,0,0,0,0,0,0,0,0,0,0,0,0,0,0,0,0,0,0,0,0,0,0,0],"split_type":[0,0,0,0,0,0,0,0,0,0,0,0,0,0,0,0,0,0,0,0,0,0,0,0,0,0,0,0,0,0,0,0,0,0,0,0,0,0,0,0,0,0,0,0,0,0,0,0,0,0,0,0,0,0,0,0,0,0,0,0,0,0,0,0,0,0,0,0,0,0,0,0,0,0,0,0,0,0,0,0,0,0,0,0,0,0,0,0,0,0,0,0,0,0,0,0,0,0,0],"sum_hessian":[1.2431604E4,5.827513E3,6.604091E3,1.0142534E3,4.81326E3,1.8397191E3,4.7643716E3,1.00339484E3,1.0858553E1,1.6500954E2,4.64825E3,8.0309106E2,1.036628E3,3.3104045E3,1.453967E3,2.0669497E1,9.8272534E2,8.860716E0,1.9978367E0,6.78619E1,9.714763E1,2.8045822E2,4.367792E3,2.0940079E2,5.9369025E2,8.5088684E2,1.8574127E2,2.1824794E2,3.0921565E3,1.3933746E3,6.059243E1,1.1752551E1,8.916946E0,6.984771E2,2.842483E2,3.3229736E1,3.4632168E1,5.857513E0,9.1290115E1,2.5091135E2,2.9546883E1,3.6444502E3,7.2334174E2,1.4763008E2,6.17707E1,1.3590749E2,4.5778278E2,1.4879571E0,8.4939886E2,6.2206642E1,1.2353464E2,2.0428561E2,1.396233E1,2.8888909E3,2.0326582E2,8.9848364E2,4.9489096E2,5.7081894E1,3.510533E0,1.8400658E0,9.912485E0,6.965884E2,1.8887255E0,1.432786E1,2.699204E2,2.9763983E1,3.4657547E0,3.1840433E1,2.791734E0,2.3886574E2,1.2045604E1,9.863075E0,1.9683807E1,3.4987996E3,1.4565059E2,6.7792615E2,4.541556E1,1.3325274E1,4.8445423E1,1.2076226E2,1.5145224E1,1.9383412E2,2.6394864E2,7.202557E2,1.2914319E2,4.977107E1,1.2435577E1,1.9333948E2,1.0946141E1,2.3579075E3,5.309834E2,1.7773955E2,2.5526268E1,3.04127E2,5.9435657E2,4.8575522E2,9.135742E0,5.5765133E1,1.3167639E0],"tree_param":{"num_deleted":"0","num_feature":"9","num_nodes":"99","size_leaf_vector":"1"}},{"base_weights":[-6.625871E-1],"categories":[],"categories_nodes":[],"categories_segments":[],"categories_sizes":[],"default_left":[0],"id":14,"left_children":[-1],"loss_changes":[0E0],"parents":[2147483647],"right_children":[-1],"split_conditions":[-6.625871E-2],"split_indices":[0],"split_type":[0],"sum_hessian":[1.0244804E4],"tree_param":{"num_deleted":"0","num_feature":"9","num_nodes":"1","size_leaf_vector":"1"}},{"base_weights":[3.3612084E-1,-4.0731173E-2,4.567458E-1,-4.2721525E-1,8.256832E-2,3.4483445E-1,6.3923424E-1,-3.0526873E-1,-6.45965E-2,8.515534E-1,5.5214375E-2,6.729706E-1,3.0432272E-1,7.921611E-1,5.058929E-1,7.2715235E-1,-3.6139977E-1,-1.0517597E-1,9.3863875E-2,7.998289E-2,-6.444021E-2,7.6728654E-1,-1.13987036E-1,7.9478663E-1,2.7909815E-1,8.9191496E-1,6.3012916E-1,4.0740454E-1,7.5894374E-1,9.792022E-2,-5.670927E-2,-5.2262574E-1,-1.9173784E-2,9.286188E-2,-5.808256E-2,-3.5642795E-2,2.6692966E-1,8.665979E-1,-8.93586E-2,-4.2086658E-1,5.9073174E-1,1.0881376E0,-5.210399E-2,2.4635315E-1,6.8019855E-1,-3.772276E-2,8.9369583E-1,-2.2038552E-1,7.1522313E-1,2.5661337E-1,8.59789E-1,7.802755E-1,-6.556416E-2,-5.76131E-2,8.8514805E-2,1.3870907E-1,-1.4652754E-2,-5.4904252E-2,3.8318676E-3,5.3412694E-2,-5.64589E-3,7.0864946E-2,9.5393285E-2,5.8242332E-2,-6.848278E-2,-5.9847023E-2,8.8578835E-2,8.456902E-2,-5.5085897E-2,-6.4997055E-2,1.1179264E-1,-7.1915194E-2,1.26036E-1,2.8702319E-2,-1.5095693E-2,7.835794E-2,-5.1639944E-2,8.7322325E-2,1.00380324E-1,-7.9168044E-2,1.1380621E-1,7.906512E-2,9.461046E-3,1.2367702E-2,7.118226E-2,-5.5448334E-3,8.935571E-2,6.0705613E-2,9.4055355E-2],"categories":[],"categories_nodes":[],"categories_segments":[],"categories_sizes":[],"default_left":[0,0,0,0,0,0,0,0,0,0,0,0,0,0,0,0,0,0,0,0,0,0,0,0,0,0,0,0,0,0,0,0,0,0,0,0,0,0,0,0,0,0,0,0,0,0,0,0,0,0,0,0,0,0,0,0,0,0,0,0,0,0,0,0,0,0,0,0,0,0,0,0,0,0,0,0,0,0,0,0,0,0,0,0,0,0,0,0,0],"id":15,"left_children":[1,3,5,7,9,11,13,15,-1,17,19,21,23,25,27,29,31,33,-1,35,-1,37,39,41,43,45,47,49,51,-1,-1,53,55,-1,-1,57,59,61,63,65,67,69,71,73,75,-1,77,79,81,83,85,87,-1,-1,-1,-1,-1,-1,-1,-1,-1,-1,-1,-1,-1,-1,-1,-1,-1,-1,-1,-1,-1,-1,-1,-1,-1,-1,-1,-1,-1,-1,-1,-1,-1,-1,-1,-1,-1],"loss_changes":[5.8739514E2,1.4938106E2,1.9968262E2,2.0027634E1,4.9949158E1,8.04812E1,7.544971E1,2.8583E1,0E0,6.8952446E0,3.984221E1,4.9533447E1,6.664084E1,2.7414185E1,4.9283478E1,8.8840065E0,2.5600475E1,4.328078E0,0E0,4.7967197E1,0E0,5.069821E1,1.5855778E1,6.559784E1,6.7362946E1,2.7529907E0,4.8137634E1,9.763745E1,1.7299133E1,0E0,0E0,2.4272964E1,2.7010239E1,0E0,0E0,5.2106327E1,7.330045E1,6.680481E0,2.5488842E1,1.233267E1,6.9590063E0,1.08741E1,6.1162067E1,7.687979E1,4.8340942E1,0E0,1.5302734E0,4.828796E1,2.81474E1,6.510585E1,1.1120117E1,1.4657806E1,0E0,0E0,0E0,0E0,0E0,0E0,0E0,0E0,0E0,0E0,0E0,0E0,0E0,0E0,0E0,0E0,0E0,0E0,0E0,0E0,0E0,0E0,0E0,0E0,0E0,0E0,0E0,0E0,0E0,0E0,0E0,0E0,0E0,0E0,0E0,0E0,0E0],"parents":[2147483647,0,0,1,1,2,2,3,3,4,4,5,5,6,6,7,7,9,9,10,10,11,11,12,12,13,13,14,14,15,15,16,16,17,17,19,19,21,21,22,22,23,23,24,24,25,25,26,26,27,27,28,28,31,31,32,32,35,35,36,36,37,37,38,38,39,39,40,40,41,41,42,42,43,43,44,44,46,46,47,47,48,48,49,49,50,50,51,51],"right_children":[2,4,6,8,10,12,14,16,-1,18,20,22,24,26,28,30,32,34,-1,36,-1,38,40,42,44,46,48,50,52,-1,-1,54,56,-1,-1,58,60,62,64,66,68,70,72,74,76,-1,78,80,82,84,86,88,-1,-1,-1,-1,-1,-1,-1,-1,-1,-1,-1,-1,-1,-1,-1,-1,-1,-1,-1,-1,-1,-1,-1,-1,-1,-1,-1,-1,-1,-1,-1,-1,-1,-1,-1,-1,-1],"split_conditions":[1.16E1,1.8E0,2E1,7E-1,9.95E2,4.7E0,1.7582372E2,6.1E1,-6.45965E-2,1.37E1,1.0336E3,4.5E1,1.24E1,2E1,4.2E1,1.43E1,1.28E1,-8E-1,9.3863875E-2,2.3E2,-6.444021E-2,5E-1,4.3E0,1.0189E3,3.23E1,2.14E1,2.4E1,9.194871E0,9.194871E0,9.792022E-2,-5.670927E-2,4.6E1,1.37E1,9.286188E-2,-5.808256E-2,1E1,3.15E2,1.0175E3,1.88E1,2.27E1,1.43E1,6.6E0,5.9E0,2.39E1,4.7E1,-3.772276E-2,1.52E2,2.28E1,2.16E1,1.0168E3,2.1E1,1.0152E3,-6.556416E-2,-5.76131E-2,8.8514805E-2,1.3870907E-1,-1.4652754E-2,-5.4904252E-2,3.8318676E-3,5.3412694E-2,-5.64589E-3,7.0864946E-2,9.5393285E-2,5.8242332E-2,-6.848278E-2,-5.9847023E-2,8.8578835E-2,8.456902E-2,-5.5085897E-2,-6.4997055E-2,1.1179264E-1,-7.1915194E-2,1.26036E-1,2.8702319E-2,-1.5095693E-2,7.835794E-2,-5.1639944E-2,8.7322325E-2,1.00380324E-1,-7.9168044E-2,1.1380621E-1,7.906512E-2,9.461046E-3,1.2367702E-2,7.118226E-2,-5.5448334E-3,8.935571E-2,6.0705613E-2,9.4055355E-2],"split_indices":[1,3,2,4,8,7,6,6,0,7,8,0,1,0,0,7,7,1,0,6,0,4,7,8,3,1,0,5,5,0,0,0,7,0,0,0,6,8,1,1,2,7,2,1,0,0,6,2,7,8,2,8,0,0,0,0,0,0,0,0,0,0,0,0,0,0,0,0,0,0,0,0,0,0,0,0,0,0,0,0,0,0,0,0,0,0,0,0,0],"split_type":[0,0,0,0,0,0,0,0,0,0,0,0,0,0,0,0,0,0,0,0,0,0,0,0,0,0,0,0,0,0,0,0,0,0,0,0,0,0,0,0,0,0,0,0,0,0,0,0,0,0,0,0,0,0,0,0,0,0,0,0,0,0,0,0,0,0,0,0,0,0,0,0,0,0,0,0,0,0,0,0,0,0,0,0,0,0,0,0,0],"sum_hessian":[1.2920369E4,3.1330076E3,9.787362E3,7.571729E2,2.3758347E3,6.0686445E3,3.7187175E3,4.8769363E2,2.694793E2,8.0574036E1,2.2952605E3,6.6518414E2,5.4034604E3,1.7298462E3,1.9888715E3,2.4531412E1,4.6316223E2,6.7049556E0,7.386908E1,2.2176353E3,7.762527E1,5.940169E2,7.116723E1,2.628147E2,5.1406455E3,1.0678977E3,6.619484E2,1.4335416E3,5.5532983E2,2.0736473E1,3.7949386E0,3.1448032E2,1.486819E2,1.8127466E0,4.892209E0,1.3706833E3,8.469519E2,5.3229596E2,6.1720974E1,4.985846E1,2.130877E1,1.9498854E2,6.7826164E1,4.7541416E3,3.8650397E2,1.2009722E0,1.0666968E3,6.005986E1,6.0188855E2,1.0763383E3,3.5720343E2,5.475217E2,7.8081517E0,3.0353464E2,1.0945686E1,1.1525333E1,1.3715657E2,1.7178983E2,1.1988936E3,4.634107E2,3.8354117E2,1.9277306E2,3.395229E2,2.9012388E1,3.2708584E1,4.436962E1,5.4888406E0,1.7630451E1,3.6783173E0,2.9347162E0,1.9205383E2,4.5270103E1,2.2556059E1,4.3129326E3,4.4120908E2,3.5608493E2,3.041902E1,9.069882E2,1.5970856E2,4.257301E1,1.7486855E1,5.364192E2,6.546932E1,8.3404175E2,2.4229648E2,1.268737E1,3.4451605E2,2.6543845E2,2.8208325E2],"tree_param":{"num_deleted":"0","num_feature":"9","num_nodes":"89","size_leaf_vector":"1"}},{"base_weights":[1.5799049E-1,3.9461097E-1,-5.4535873E-2,6.731574E-1,2.86343E-1,-3.308612E-1,4.9127884E-2,1.5397243E-1,7.3939407E-1,7.09207E-1,2.5604016E-1,-8.087986E-2,-5.3153694E-1,1.2217653E-1,-3.482902E-1,8.7111944E-1,-8.970622E-2,7.483145E-1,-3.894203E-1,8.0659676E-1,-1.2778705E-1,-5.3812534E-1,2.728307E-1,-6.095432E-1,1.0291337E-1,-5.8873606E-1,-2.7165538E-1,2.1228588E-1,-2.2594234E-1,-4.535858E-1,1.0335438E0,-4.8332505E-2,9.3478376E-1,4.2574003E-1,-5.8047396E-1,8.240105E-1,6.16506E-1,-6.618538E-2,6.524747E-2,2.0190074E-1,8.6655444E-1,8.7873206E-2,-6.6688895E-2,3.6350188E-1,-6.552285E-2,6.570437E-2,3.2313606E-1,-6.854344E-2,-4.2260507E-1,4.7763017E-1,-1.9056505E-1,-6.1748874E-1,-4.268723E-1,4.1923332E-1,-6.388829E-2,1.5140638E-1,6.856688E-1,-4.6274638E-1,3.0589175E-1,-6.0325843E-1,-8.634664E-2,1.09170094E-1,-4.4966877E-2,2.2126885E-2,1.0159128E-1,-6.62096E-2,6.586041E-2,-6.293015E-2,7.7563345E-2,4.9299885E-2,8.4920764E-2,-7.9980545E-2,7.0234284E-2,9.1165E-2,-7.0905626E-2,9.131907E-2,2.5346528E-3,8.180289E-2,-5.07915E-2,-4.4827983E-2,2.3864372E-2,2.9922778E-2,8.8800825E-2,-4.922449E-2,9.453858E-2,-6.950196E-2,6.498336E-2,4.139531E-2,-3.337432E-2,6.1906856E-2,-6.2111508E-2,-5.786729E-2,1.5418278E-1,-5.5131514E-2,7.2017245E-2,1.0734263E-2,7.793539E-2,8.456256E-2,-7.016166E-2,1.06190614E-1,-5.0567992E-2,-4.874036E-2,9.639048E-2,-6.4621456E-2,3.549641E-2,6.420553E-2,-3.7454404E-2],"categories":[],"categories_nodes":[],"categories_segments":[],"categories_sizes":[],"default_left":[0,0,0,0,0,0,0,0,0,0,0,0,0,0,0,0,0,0,0,0,0,0,0,0,0,0,0,0,0,0,0,0,0,0,0,0,0,0,0,0,0,0,0,0,0,0,0,0,0,0,0,0,0,0,0,0,0,0,0,0,0,0,0,0,0,0,0,0,0,0,0,0,0,0,0,0,0,0,0,0,0,0,0,0,0,0,0,0,0,0,0,0,0,0,0,0,0,0,0,0,0,0,0,0,0,0,0],"id":16,"left_children":[1,3,5,7,9,11,13,15,17,19,21,23,25,27,29,31,33,35,37,39,41,43,45,47,49,51,53,55,57,59,61,-1,63,65,67,69,71,-1,-1,73,75,-1,-1,77,-1,79,81,-1,83,85,87,89,91,93,-1,95,97,99,101,103,105,-1,-1,-1,-1,-1,-1,-1,-1,-1,-1,-1,-1,-1,-1,-1,-1,-1,-1,-1,-1,-1,-1,-1,-1,-1,-1,-1,-1,-1,-1,-1,-1,-1,-1,-1,-1,-1,-1,-1,-1,-1,-1,-1,-1,-1,-1],"loss_changes":[6.219117E2,1.7628076E2,1.8666226E2,5.6185608E1,5.38367E1,8.9135666E1,1.3762411E2,3.266856E1,1.490863E1,2.3035294E1,5.2621155E1,7.7093185E1,1.4495758E1,1.2565005E2,1.0757217E2,4.5382996E0,3.5688194E1,1.3865356E1,3.8491607E0,8.966705E0,1.6965202E1,8.876392E0,4.014026E1,2.6138306E0,6.48776E1,3.4931946E0,4.5862534E1,9.15775E1,1.03891945E2,3.7581573E1,5.012985E0,0E0,2.415081E0,1.7892275E1,5.2683773E0,7.1887817E0,6.49326E1,0E0,0E0,1.619539E1,8.964294E0,0E0,0E0,4.395218E0,0E0,6.71694E1,4.161325E1,0E0,6.343567E0,5.27595E1,2.8795124E1,3.4480896E0,3.824819E1,1.8790052E1,0E0,7.794562E1,8.097223E1,3.7874832E1,1.3326736E2,2.0244553E1,4.2102596E1,0E0,0E0,0E0,0E0,0E0,0E0,0E0,0E0,0E0,0E0,0E0,0E0,0E0,0E0,0E0,0E0,0E0,0E0,0E0,0E0,0E0,0E0,0E0,0E0,0E0,0E0,0E0,0E0,0E0,0E0,0E0,0E0,0E0,0E0,0E0,0E0,0E0,0E0,0E0,0E0,0E0,0E0,0E0,0E0,0E0,0E0],"parents":[2147483647,0,0,1,1,2,2,3,3,4,4,5,5,6,6,7,7,8,8,9,9,10,10,11,11,12,12,13,13,14,14,15,15,16,16,17,17,18,18,19,19,20,20,21,21,22,22,23,23,24,24,25,25,26,26,27,27,28,28,29,29,30,30,32,32,33,33,34,34,35,35,36,36,39,39,40,40,43,43,45,45,46,46,48,48,49,49,50,50,51,51,52,52,53,53,55,55,56,56,57,57,58,58,59,59,60,60],"right_children":[2,4,6,8,10,12,14,16,18,20,22,24,26,28,30,32,34,36,38,40,42,44,46,48,50,52,54,56,58,60,62,-1,64,66,68,70,72,-1,-1,74,76,-1,-1,78,-1,80,82,-1,84,86,88,90,92,94,-1,96,98,100,102,104,106,-1,-1,-1,-1,-1,-1,-1,-1,-1,-1,-1,-1,-1,-1,-1,-1,-1,-1,-1,-1,-1,-1,-1,-1,-1,-1,-1,-1,-1,-1,-1,-1,-1,-1,-1,-1,-1,-1,-1,-1,-1,-1,-1,-1,-1,-1],"split_conditions":[1.27E1,5.6E0,1.48E2,1.0143E3,4E0,1.96E1,3.44E1,1.0068E3,4.7E1,1.81E2,9.981E2,2.29E1,2.7E1,9.194871E0,4.4E1,6E0,1.8E0,1.31E1,4.9E1,1E0,8.3E0,1.41E2,1.09E2,4E1,1.0135E3,1.0179E3,3.6E1,1.98E1,3.2E1,1.39E1,4.9E1,-4.8332505E-2,2.5E0,-1.92E1,3.38E1,4.9E1,1.37E1,-6.618538E-2,6.524747E-2,1.04E1,2.44E1,8.7873206E-2,-6.6688895E-2,9.1E0,-6.552285E-2,8.5E0,2.88E1,-6.854344E-2,2.27E1,5.2E0,3.1E1,2.14E1,1.8E1,2.62E1,-6.388829E-2,1.4E1,2.9E1,4E0,6.6E0,1.0196E3,1.62E1,1.09170094E-1,-4.4966877E-2,2.2126885E-2,1.0159128E-1,-6.62096E-2,6.586041E-2,-6.293015E-2,7.7563345E-2,4.9299885E-2,8.4920764E-2,-7.9980545E-2,7.0234284E-2,9.1165E-2,-7.0905626E-2,9.131907E-2,2.5346528E-3,8.180289E-2,-5.07915E-2,-4.4827983E-2,2.3864372E-2,2.9922778E-2,8.8800825E-2,-4.922449E-2,9.453858E-2,-6.950196E-2,6.498336E-2,4.139531E-2,-3.337432E-2,6.1906856E-2,-6.2111508E-2,-5.786729E-2,1.5418278E-1,-5.5131514E-2,7.2017245E-2,1.0734263E-2,7.793539E-2,8.456256E-2,-7.016166E-2,1.06190614E-1,-5.0567992E-2,-4.874036E-2,9.639048E-2,-6.4621456E-2,3.549641E-2,6.420553E-2,-3.7454404E-2],"split_indices":[2,3,6,8,0,2,3,8,0,6,8,3,0,5,0,6,3,7,0,0,1,6,6,6,8,8,0,7,0,7,0,0,7,2,7,6,7,0,0,1,3,0,0,1,0,7,7,0,7,7,6,1,0,3,0,4,4,0,7,8,7,0,0,0,0,0,0,0,0,0,0,0,0,0,0,0,0,0,0,0,0,0,0,0,0,0,0,0,0,0,0,0,0,0,0,0,0,0,0,0,0,0,0,0,0,0,0],"split_type":[0,0,0,0,0,0,0,0,0,0,0,0,0,0,0,0,0,0,0,0,0,0,0,0,0,0,0,0,0,0,0,0,0,0,0,0,0,0,0,0,0,0,0,0,0,0,0,0,0,0,0,0,0,0,0,0,0,0,0,0,0,0,0,0,0,0,0,0,0,0,0,0,0,0,0,0,0,0,0,0,0,0,0,0,0,0,0,0,0,0,0,0,0,0,0,0,0,0,0,0,0,0,0,0,0,0,0],"sum_hessian":[1.236555E4,5.8506997E3,6.51485E3,1.6361295E3,4.2145703E3,1.7767001E3,4.73815E3,1.8549373E2,1.4506357E3,2.8032642E2,3.9342437E3,7.91782E2,9.849181E2,4.0030498E3,7.351002E2,4.6390747E1,1.3910298E2,1.4395964E3,1.103929E1,2.5114085E2,2.9185572E1,8.0814156E1,3.8534297E3,2.0365932E2,5.881226E2,8.062086E2,1.7870947E2,3.1802449E3,8.2280505E2,6.836759E2,5.1424282E1,1.786727E0,4.460402E1,6.7910286E1,7.1192696E1,9.111074E2,5.284891E2,9.040223E0,1.9990675E0,2.3049114E1,2.2809174E2,9.959989E0,1.9225582E1,9.047728E0,7.176643E1,7.53459E2,3.0999707E3,1.4295662E2,6.0702686E1,2.580341E2,3.3008853E2,6.822094E2,1.23999214E2,6.1973373E1,1.167361E2,2.8190237E3,3.6122116E2,5.69403E2,2.5340205E2,4.8525986E2,1.9841605E2,4.9738007E1,1.6862779E0,4.934385E0,3.9669636E1,1.1648851E1,5.6261436E1,6.923576E1,1.9569305E0,6.59038E1,8.452036E2,2.9723991E1,4.9876505E2,1.2954882E1,1.0094232E1,2.1602957E2,1.2062162E1,5.9864755E0,3.061252E0,1.8928944E2,5.6416956E2,2.9755596E3,1.2441111E2,5.8371365E1,2.3313208E0,3.265154E1,2.2538255E2,6.284731E1,2.6724124E2,1.4985418E0,6.807109E2,1.15777985E2,8.22123E0,1.4471111E1,4.7502262E1,2.6352744E3,1.8374915E2,3.2422754E2,3.6993626E1,1.4944961E1,5.5445807E2,1.1500827E2,1.3839378E2,4.647512E2,2.0508694E1,5.5901207E1,1.4251485E2],"tree_param":{"num_deleted":"0","num_feature":"9","num_nodes":"107","size_leaf_vector":"1"}},{"base_weights":[-6.4745426E-1],"categories":[],"categories_nodes":[],"categories_segments":[],"categories_sizes":[],"default_left":[0],"id":17,"left_children":[-1],"loss_changes":[0E0],"parents":[2147483647],"right_children":[-1],"split_conditions":[-6.4745426E-2],"split_indices":[0],"split_type":[0],"sum_hessian":[9.724688E3],"tree_param":{"num_deleted":"0","num_feature":"9","num_nodes":"1","size_leaf_vector":"1"}},{"base_weights":[3.118943E-1,8.23673E-2,4.796765E-1,-4.08671E-1,1.57999E-1,6.776407E-1,3.9627647E-1,-2.8627968E-1,-6.320895E-2,-2.9770556E-1,1.8279348E-1,5.2428305E-1,7.783146E-1,3.339997E-1,7.005792E-1,6.9523436E-1,-3.416272E-1,-4.343625E-1,5.8731407E-1,2.3076472E-1,-9.180686E-2,6.6419774E-1,-4.9330212E-2,8.1042993E-1,6.162947E-1,2.5611988E-1,6.117786E-1,7.771736E-1,-6.46221E-1,9.298932E-2,-5.4947924E-2,-5.1821786E-1,-3.4190513E-2,3.243834E-1,-5.334533E-1,-5.448786E-2,1.0064614E-1,1.9693233E-1,6.194125E-1,-3.3706614E-1,1.8731675E-1,9.5135975E-1,5.111071E-1,5.0910634E-1,-6.0865706E-1,-3.6658324E-2,8.120084E-1,1.5051763E-2,8.391214E-2,3.1015384E-1,-2.0063764E-1,7.872968E-1,1.7022642E-1,8.771529E-1,5.002059E-1,-7.20607E-2,7.250846E-2,-5.7995874E-2,1.4900592E-2,1.3756786E-1,-2.102323E-2,-2.9907389E-2,1.04842044E-1,-6.0343582E-2,4.1741166E-2,3.1866066E-3,2.9892584E-2,8.592518E-2,-1.3374156E-2,-5.449341E-2,4.6276417E-2,-2.7060157E-2,5.5320334E-2,7.160977E-2,9.94974E-2,7.060791E-2,-5.0575424E-2,-7.458779E-2,8.9726776E-2,-6.6132344E-2,8.731275E-2,8.287021E-2,7.1181364E-2,-5.5959977E-2,5.45066E-2,3.480373E-2,-2.9933874E-2,-4.975237E-2,4.7660682E-2,-5.7843834E-2,8.189757E-2,6.795281E-2,-7.1201004E-2,9.083368E-2,8.850324E-3,-1.3361672E-2,7.305359E-2],"categories":[],"categories_nodes":[],"categories_segments":[],"categories_sizes":[],"default_left":[0,0,0,0,0,0,0,0,0,0,0,0,0,0,0,0,0,0,0,0,0,0,0,0,0,0,0,0,0,0,0,0,0,0,0,0,0,0,0,0,0,0,0,0,0,0,0,0,0,0,0,0,0,0,0,0,0,0,0,0,0,0,0,0,0,0,0,0,0,0,0,0,0,0,0,0,0,0,0,0,0,0,0,0,0,0,0,0,0,0,0,0,0,0,0,0,0],"id":18,"left_children":[1,3,5,7,9,11,13,15,-1,17,19,21,23,25,27,29,31,33,35,37,39,41,43,45,47,49,51,53,55,-1,-1,57,59,61,63,-1,-1,65,67,69,71,73,75,77,79,-1,81,83,-1,85,87,89,91,93,95,-1,-1,-1,-1,-1,-1,-1,-1,-1,-1,-1,-1,-1,-1,-1,-1,-1,-1,-1,-1,-1,-1,-1,-1,-1,-1,-1,-1,-1,-1,-1,-1,-1,-1,-1,-1,-1,-1,-1,-1,-1,-1],"loss_changes":[4.9564197E2,2.019737E2,1.2249487E2,1.9668434E1,5.3293068E1,3.3598267E1,9.895557E1,2.5814129E1,0E0,2.9707106E1,5.8894882E1,7.033504E1,6.4085083E0,9.3877625E1,9.213397E1,7.9478016E0,2.4214909E1,1.6076118E1,1.6207518E1,4.990857E1,4.5612606E1,3.047464E1,5.4251736E1,2.3504028E0,2.997081E1,8.3892395E1,7.3576416E1,2.2847382E1,5.4539585E0,0E0,0E0,1.1762558E1,4.097243E1,1.1623556E1,1.2726528E1,0E0,0E0,5.8943954E1,5.507058E1,5.919522E1,5.239761E1,1.7884369E0,9.1860016E1,4.3031677E1,7.3462715E0,0E0,1.2561646E0,1.9046616E1,0E0,7.024393E1,7.2603966E1,2.9906647E1,1.22612015E2,1.5082733E1,3.2999035E1,0E0,0E0,0E0,0E0,0E0,0E0,0E0,0E0,0E0,0E0,0E0,0E0,0E0,0E0,0E0,0E0,0E0,0E0,0E0,0E0,0E0,0E0,0E0,0E0,0E0,0E0,0E0,0E0,0E0,0E0,0E0,0E0,0E0,0E0,0E0,0E0,0E0,0E0,0E0,0E0,0E0,0E0],"parents":[2147483647,0,0,1,1,2,2,3,3,4,4,5,5,6,6,7,7,9,9,10,10,11,11,12,12,13,13,14,14,15,15,16,16,17,17,18,18,19,19,20,20,21,21,22,22,23,23,24,24,25,25,26,26,27,27,28,28,31,31,32,32,33,33,34,34,37,37,38,38,39,39,40,40,41,41,42,42,43,43,44,44,46,46,47,47,49,49,50,50,51,51,52,52,53,53,54,54],"right_children":[2,4,6,8,10,12,14,16,-1,18,20,22,24,26,28,30,32,34,36,38,40,42,44,46,48,50,52,54,56,-1,-1,58,60,62,64,-1,-1,66,68,70,72,74,76,78,80,-1,82,84,-1,86,88,90,92,94,96,-1,-1,-1,-1,-1,-1,-1,-1,-1,-1,-1,-1,-1,-1,-1,-1,-1,-1,-1,-1,-1,-1,-1,-1,-1,-1,-1,-1,-1,-1,-1,-1,-1,-1,-1,-1,-1,-1,-1,-1,-1,-1],"split_conditions":[1.27E1,1.8E0,1.48E2,7E-1,4E0,1.96E1,3.44E1,6.1E1,-6.320895E-2,1.81E2,3.15E2,2.34E1,2.7E1,9.194871E0,4.4E1,1.43E1,2.11E2,1E0,8.3E0,2.87E2,3.4E2,2.29E1,1.81E1,2.14E1,3.6E1,1.98E1,3.2E1,1.39E1,4.9E1,9.298932E-2,-5.4947924E-2,-8E-1,2.67E2,1.04E1,2.44E1,-5.448786E-2,1.0064614E-1,9.9E0,1.16E1,1.89E1,1.01E1,1.16E1,9.2E0,2.4E1,3.6E1,-3.6658324E-2,1.0179E3,1.43E1,8.391214E-2,1.4E1,2.59E1,4E0,1.73E1,1.0196E3,1.62E1,-7.20607E-2,7.250846E-2,-5.7995874E-2,1.4900592E-2,1.3756786E-1,-2.102323E-2,-2.9907389E-2,1.04842044E-1,-6.0343582E-2,4.1741166E-2,3.1866066E-3,2.9892584E-2,8.592518E-2,-1.3374156E-2,-5.449341E-2,4.6276417E-2,-2.7060157E-2,5.5320334E-2,7.160977E-2,9.94974E-2,7.060791E-2,-5.0575424E-2,-7.458779E-2,8.9726776E-2,-6.6132344E-2,8.731275E-2,8.287021E-2,7.1181364E-2,-5.5959977E-2,5.45066E-2,3.480373E-2,-2.9933874E-2,-4.975237E-2,4.7660682E-2,-5.7843834E-2,8.189757E-2,6.795281E-2,-7.1201004E-2,9.083368E-2,8.850324E-3,-1.3361672E-2,7.305359E-2],"split_indices":[2,3,6,4,0,2,3,6,0,6,6,1,0,5,0,7,6,0,1,6,6,3,2,1,0,7,0,7,0,0,0,1,6,1,3,0,0,1,1,3,3,7,4,1,0,0,8,7,0,4,7,0,2,8,7,0,0,0,0,0,0,0,0,0,0,0,0,0,0,0,0,0,0,0,0,0,0,0,0,0,0,0,0,0,0,0,0,0,0,0,0,0,0,0,0,0,0],"split_type":[0,0,0,0,0,0,0,0,0,0,0,0,0,0,0,0,0,0,0,0,0,0,0,0,0,0,0,0,0,0,0,0,0,0,0,0,0,0,0,0,0,0,0,0,0,0,0,0,0,0,0,0,0,0,0,0,0,0,0,0,0,0,0,0,0,0,0,0,0,0,0,0,0,0,0,0,0,0,0,0,0,0,0,0,0,0,0,0,0,0,0,0,0,0,0,0,0],"sum_hessian":[1.2870316E4,5.4357173E3,7.4345996E3,7.249007E2,4.7108164E3,2.2016008E3,5.2329985E3,4.6981296E2,2.5508774E2,2.4251746E2,4.468299E3,8.749653E2,1.3266355E3,4.3457256E3,8.8727277E2,2.4461409E1,4.4535156E2,2.1052002E2,3.1997444E1,3.803932E3,6.6436707E2,7.0326764E2,1.7169765E2,1.1038334E3,2.228022E2,3.3956284E3,9.500974E2,8.399279E2,4.734486E1,2.0794134E1,3.6672742E0,2.8243576E2,1.629158E2,2.4055046E1,1.8646497E2,8.564152E0,2.3433292E1,3.5006978E3,3.032343E2,3.5352524E2,3.1084186E2,2.427366E2,4.6053104E2,8.5962135E1,8.573551E1,1.1686367E0,1.1026647E3,6.053391E1,1.622683E2,3.0367097E3,3.5891867E2,6.7929346E2,2.7080396E2,6.155578E2,2.2437012E2,4.5358894E1,1.9859657E0,2.586341E2,2.3801674E1,1.7327805E1,1.45588E2,1.3240656E1,1.0814392E1,1.740225E2,1.2442461E1,1.3374619E3,2.1632358E3,2.2988678E2,7.334752E1,2.8085303E2,7.267222E1,1.3817368E2,1.7266817E2,4.0686493E1,2.0205011E2,3.866926E2,7.3838425E1,2.008919E1,6.587295E1,8.3327545E1,2.4079702E0,9.389527E2,1.6371198E2,2.9017145E1,3.1516762E1,2.8594102E3,1.7729973E2,2.4971541E2,1.0920326E2,1.5008092E1,6.6428534E2,1.7183562E2,9.896832E1,5.91998E2,2.3559826E1,5.9915215E1,1.644549E2],"tree_param":{"num_deleted":"0","num_feature":"9","num_nodes":"97","size_leaf_vector":"1"}},{"base_weights":[1.4913704E-1,3.6617145E-1,-4.8382577E-2,7.230085E-1,2.9307935E-1,-3.1490836E-1,4.892456E-2,7.3430383E-1,-3.2658088E-1,-2.4796604E-1,3.1126136E-1,-7.8596324E-2,-5.13185E-1,1.1685376E-1,-3.3125672E-1,6.58363E-1,8.569115E-2,-5.963337E-2,6.2022563E-2,2.1997666E-1,-5.907761E-1,8.0896723E-1,2.922256E-1,-2.3569341E-1,5.059935E-1,-5.717256E-1,-2.515605E-1,1.9990942E-1,-2.1241124E-1,-4.344463E-1,9.6385014E-1,-3.234836E-1,6.9615054E-1,-4.9601027E-1,8.5883206E-1,7.672948E-2,-6.938002E-2,-7.11068E-2,8.7837636E-1,6.927964E-1,2.6623404E-1,-5.950302E-1,-6.4937584E-2,-1.0680111E-1,9.9287367E-1,-6.015089E-1,-4.066865E-1,4.1281822E-1,-6.2438287E-2,-2.1807215E-1,2.637088E-1,-4.424218E-1,2.8908592E-1,-1.8668605E-1,-6.516759E-1,1.019387E-1,-4.5192964E-2,-6.432303E-2,8.313722E-2,8.134285E-2,4.324077E-2,-6.7182824E-2,7.511781E-2,9.9811964E-2,-5.875141E-2,1.0059823E-1,5.095389E-3,7.877746E-2,-1.2649539E-2,2.8892187E-2,-3.930618E-2,-3.2653004E-2,-6.479857E-2,-3.0803148E-2,8.335474E-2,1.2308388E-1,-5.785611E-2,1.0405337E-1,-5.7867926E-2,5.8531623E-2,-6.05188E-2,-5.590538E-2,1.3296762E-1,6.66289E-2,-6.4127594E-2,1.8502608E-3,-6.384364E-2,3.391445E-2,-1.5013709E-2,9.943276E-2,-4.8508458E-2,-2.833481E-2,1.08845614E-1,-6.975336E-2,-8.140132E-3,-6.565275E-2,-4.130915E-2],"categories":[],"categories_nodes":[],"categories_segments":[],"categories_sizes":[],"default_left":[0,0,0,0,0,0,0,0,0,0,0,0,0,0,0,0,0,0,0,0,0,0,0,0,0,0,0,0,0,0,0,0,0,0,0,0,0,0,0,0,0,0,0,0,0,0,0,0,0,0,0,0,0,0,0,0,0,0,0,0,0,0,0,0,0,0,0,0,0,0,0,0,0,0,0,0,0,0,0,0,0,0,0,0,0,0,0,0,0,0,0,0,0,0,0,0,0],"id":19,"left_children":[1,3,5,7,9,11,13,15,17,19,21,23,25,27,29,31,-1,-1,-1,33,35,37,39,41,43,45,47,49,51,53,55,57,59,61,63,-1,-1,-1,65,67,69,71,73,75,77,79,81,83,-1,85,87,89,91,93,95,-1,-1,-1,-1,-1,-1,-1,-1,-1,-1,-1,-1,-1,-1,-1,-1,-1,-1,-1,-1,-1,-1,-1,-1,-1,-1,-1,-1,-1,-1,-1,-1,-1,-1,-1,-1,-1,-1,-1,-1,-1,-1],"loss_changes":[5.261997E2,1.5232507E2,1.666972E2,1.2019348E1,4.7844757E1,8.050462E1,1.216485E2,8.591492E0,3.2485232E0,2.554472E1,4.427661E1,7.2254395E1,1.4169479E1,1.09317795E2,9.585048E1,2.2914307E1,0E0,0E0,0E0,3.1400974E1,1.3364277E1,1.8825378E1,4.6946503E1,3.7990253E1,4.9838596E1,3.50531E0,4.302585E1,8.516374E1,9.302866E1,3.551203E1,4.628605E0,9.155666E0,1.7872711E1,7.645508E0,7.869652E0,0E0,0E0,0E0,1.7415092E1,2.1514908E1,6.3724274E1,2.625351E0,9.226569E1,4.7853558E1,7.566658E0,3.1669617E0,3.2415382E1,1.7170559E1,0E0,4.2095226E1,8.65043E1,3.4350647E1,1.164643E2,1.6654345E1,1.3667297E-1,0E0,0E0,0E0,0E0,0E0,0E0,0E0,0E0,0E0,0E0,0E0,0E0,0E0,0E0,0E0,0E0,0E0,0E0,0E0,0E0,0E0,0E0,0E0,0E0,0E0,0E0,0E0,0E0,0E0,0E0,0E0,0E0,0E0,0E0,0E0,0E0,0E0,0E0,0E0,0E0,0E0,0E0],"parents":[2147483647,0,0,1,1,2,2,3,3,4,4,5,5,6,6,7,7,8,8,9,9,10,10,11,11,12,12,13,13,14,14,15,15,19,19,20,20,21,21,22,22,23,23,24,24,25,25,26,26,27,27,28,28,29,29,30,30,31,31,32,32,33,33,34,34,38,38,39,39,40,40,41,41,42,42,43,43,44,44,45,45,46,46,47,47,49,49,50,50,51,51,52,52,53,53,54,54],"right_children":[2,4,6,8,10,12,14,16,18,20,22,24,26,28,30,32,-1,-1,-1,34,36,38,40,42,44,46,48,50,52,54,56,58,60,62,64,-1,-1,-1,66,68,70,72,74,76,78,80,82,84,-1,86,88,90,92,94,96,-1,-1,-1,-1,-1,-1,-1,-1,-1,-1,-1,-1,-1,-1,-1,-1,-1,-1,-1,-1,-1,-1,-1,-1,-1,-1,-1,-1,-1,-1,-1,-1,-1,-1,-1,-1,-1,-1,-1,-1,-1,-1],"split_conditions":[1.27E1,1.8E0,1.48E2,4.6E1,1.0021E3,1.96E1,3.44E1,7E-1,4.9E1,1.6E1,1.0059E3,2.34E1,2.7E1,9.194871E0,4.4E1,6.1E1,8.569115E-2,-5.963337E-2,6.2022563E-2,1.6E0,4.5E0,-4.6E0,4E0,2.29E1,1.81E1,1.0179E3,3.6E1,5.2E0,3.2E1,4.2E1,4.9E1,1.43E1,1.28E1,9.194871E0,9.194871E0,7.672948E-2,-6.938002E-2,-7.11068E-2,1.78E1,1.81E2,1.78E1,1.16E1,9.2E0,2.4E1,3.6E1,2.14E1,1.8E1,2.3E1,-6.2438287E-2,2.73E1,1.0186E3,4E0,1.73E1,1.94E1,3.8E1,1.019387E-1,-4.5192964E-2,-6.432303E-2,8.313722E-2,8.134285E-2,4.324077E-2,-6.7182824E-2,7.511781E-2,9.9811964E-2,-5.875141E-2,1.0059823E-1,5.095389E-3,7.877746E-2,-1.2649539E-2,2.8892187E-2,-3.930618E-2,-3.2653004E-2,-6.479857E-2,-3.0803148E-2,8.335474E-2,1.2308388E-1,-5.785611E-2,1.0405337E-1,-5.7867926E-2,5.8531623E-2,-6.05188E-2,-5.590538E-2,1.3296762E-1,6.66289E-2,-6.4127594E-2,1.8502608E-3,-6.384364E-2,3.391445E-2,-1.5013709E-2,9.943276E-2,-4.8508458E-2,-2.833481E-2,1.08845614E-1,-6.975336E-2,-8.140132E-3,-6.565275E-2,-4.130915E-2],"split_indices":[2,3,6,0,8,2,3,4,0,7,8,1,0,5,0,6,0,0,0,4,1,2,0,3,2,8,0,7,0,0,0,7,7,5,5,0,0,0,1,6,4,7,4,1,0,1,0,2,0,1,8,0,2,2,3,0,0,0,0,0,0,0,0,0,0,0,0,0,0,0,0,0,0,0,0,0,0,0,0,0,0,0,0,0,0,0,0,0,0,0,0,0,0,0,0,0,0],"split_type":[0,0,0,0,0,0,0,0,0,0,0,0,0,0,0,0,0,0,0,0,0,0,0,0,0,0,0,0,0,0,0,0,0,0,0,0,0,0,0,0,0,0,0,0,0,0,0,0,0,0,0,0,0,0,0,0,0,0,0,0,0,0,0,0,0,0,0,0,0,0,0,0,0,0,0,0,0,0,0,0,0,0,0,0,0,0,0,0,0,0,0,0,0,0,0,0,0],"sum_hessian":[1.2273311E4,5.8473706E3,6.4259404E3,9.9259753E2,4.854773E3,1.71802E3,4.7079204E3,9.823265E2,1.0271027E1,1.5743086E2,4.6973423E3,7.844662E2,9.3355383E2,3.994833E3,7.1308734E2,6.105397E2,3.7178683E2,8.281674E0,1.9893527E0,6.6717896E1,9.071296E1,1.7151218E2,4.52583E3,6.1877844E2,1.6568779E2,7.6188965E2,1.7166418E2,3.1904487E3,8.043841E2,6.610794E2,5.2007957E1,2.2346342E1,5.881933E2,3.1565245E1,3.515265E1,5.941675E0,8.4771286E1,7.0860324E0,1.6442613E2,2.7420752E2,4.2516226E3,1.9852333E2,4.202551E2,7.370377E1,9.198402E1,6.43176E2,1.1871362E2,6.16662E1,1.09997986E2,4.2217184E2,2.7682769E3,5.515395E2,2.5284456E2,3.0970554E2,3.5137387E2,5.031426E1,1.6936995E0,1.7847813E1,4.498531E0,4.057051E2,1.8248822E2,2.8069565E1,3.4956815E0,3.2347397E1,2.8052502E0,1.4226941E2,2.2156725E1,2.4575615E2,2.845137E1,4.110725E3,1.4089748E2,3.38846E1,1.6463873E2,3.3128098E2,8.897413E1,1.8797068E1,5.4906708E1,8.96045E1,2.3795114E0,1.4990749E0,6.4167694E2,1.0976011E2,8.953511E0,5.0008823E1,1.1657375E1,2.707524E2,1.5141945E2,2.3416265E3,4.2665042E2,1.5261837E1,5.3627765E2,1.4771236E2,1.0513221E2,5.1961273E1,2.5774426E2,3.4265427E2,8.719605E0],"tree_param":{"num_deleted":"0","num_feature":"9","num_nodes":"97","size_leaf_vector":"1"}},{"base_weights":[-6.3422126E-1],"categories":[],"categories_nodes":[],"categories_segments":[],"categories_sizes":[],"default_left":[0],"id":20,"left_children":[-1],"loss_changes":[0E0],"parents":[2147483647],"right_children":[-1],"split_conditions":[-6.342213E-2],"split_indices":[0],"split_type":[0],"sum_hessian":[9.215097E3],"tree_param":{"num_deleted":"0","num_feature":"9","num_nodes":"1","size_leaf_vector":"1"}},{"base_weights":[2.9041547E-1,7.986113E-2,4.4455576E-1,-3.8988492E-1,1.4890797E-1,6.333534E-1,3.6637744E-1,-2.6868555E-1,-6.1776366E-2,-2.793273E-1,1.7132093E-1,4.854393E-1,7.3269534E-1,3.088238E-1,6.510955E-1,4.226439E-1,-3.4221306E-1,-4.1171387E-1,5.4345447E-1,2.1612518E-1,-8.792566E-2,6.121633E-1,-4.4210862E-2,7.630258E-1,5.799393E-1,2.3732321E-1,5.665665E-1,7.2089285E-1,-6.1451083E-1,1.3372432E-1,9.8007016E-2,6.087583E-1,-3.9321852E-1,3.1669676E-1,-5.103834E-1,-5.3757745E-1,9.395923E-2,1.8456966E-1,5.799806E-1,-3.2480714E-1,1.7688815E-1,8.7436336E-1,4.7194207E-1,4.7148073E-1,-5.7490367E-1,-3.5614613E-2,7.645442E-1,1.6888494E-2,7.9223864E-2,2.875134E-1,-1.9199656E-1,7.2743624E-1,1.5991098E-1,8.17958E-1,4.5662078E-1,-6.8818375E-2,6.802184E-2,-2.7490044E-2,1.0383874E-1,-5.3040702E-2,8.636842E-2,-5.570023E-2,-1.055701E-2,-2.8010327E-2,9.840142E-2,-5.8181524E-2,4.0964242E-2,-2.8140312E-2,-6.102397E-2,2.934486E-3,2.800267E-2,8.046461E-2,-1.2857161E-2,-5.28449E-2,4.3333724E-2,3.747587E-2,-6.470407E-2,6.58508E-2,9.144258E-2,6.467919E-2,-4.794949E-2,-6.98067E-2,8.270752E-2,-6.267486E-2,8.074267E-2,7.8136526E-2,6.6479556E-2,-5.3779222E-2,5.148816E-2,3.22729E-2,-2.8608257E-2,-3.5749927E-2,9.648195E-2,-5.4413904E-2,7.564046E-2,7.8005366E-2,-4.815726E-2,8.482353E-2,6.5664076E-3,-1.4313975E-2,6.7498915E-2],"categories":[],"categories_nodes":[],"categories_segments":[],"categories_sizes":[],"default_left":[0,0,0,0,0,0,0,0,0,0,0,0,0,0,0,0,0,0,0,0,0,0,0,0,0,0,0,0,0,0,0,0,0,0,0,0,0,0,0,0,0,0,0,0,0,0,0,0,0,0,0,0,0,0,0,0,0,0,0,0,0,0,0,0,0,0,0,0,0,0,0,0,0,0,0,0,0,0,0,0,0,0,0,0,0,0,0,0,0,0,0,0,0,0,0,0,0,0,0,0,0],"id":21,"left_children":[1,3,5,7,9,11,13,15,-1,17,19,21,23,25,27,29,31,33,35,37,39,41,43,45,47,49,51,53,55,57,-1,59,61,63,65,67,-1,69,71,73,75,77,79,81,83,-1,85,87,-1,89,91,93,95,97,99,-1,-1,-1,-1,-1,-1,-1,-1,-1,-1,-1,-1,-1,-1,-1,-1,-1,-1,-1,-1,-1,-1,-1,-1,-1,-1,-1,-1,-1,-1,-1,-1,-1,-1,-1,-1,-1,-1,-1,-1,-1,-1,-1,-1,-1,-1],"loss_changes":[4.1463123E2,1.7524863E2,1.08641846E2,1.8959084E1,4.5253593E1,3.1363403E1,8.531561E1,2.321275E1,0E0,2.5780535E1,5.201248E1,5.8437973E1,5.531433E0,7.990292E1,7.7881165E1,6.9670486E0,2.0162178E1,1.4728394E1,1.4615689E1,4.371782E1,4.147926E1,2.5408264E1,4.650815E1,2.0950928E0,2.6017693E1,7.335217E1,6.1537292E1,2.0950043E1,4.8900967E0,1.144426E1,0E0,6.643994E0,1.8335602E1,1.0150808E1,1.1994202E1,4.599571E-3,0E0,5.205694E1,4.851905E1,5.4095158E1,5.1177933E1,1.5039062E0,7.679567E1,3.6441277E1,6.505596E0,0E0,1.2783203E0,1.7029879E1,0E0,6.1619553E1,6.8627144E1,2.5276306E1,1.0715875E2,1.3763489E1,2.9638836E1,0E0,0E0,0E0,0E0,0E0,0E0,0E0,0E0,0E0,0E0,0E0,0E0,0E0,0E0,0E0,0E0,0E0,0E0,0E0,0E0,0E0,0E0,0E0,0E0,0E0,0E0,0E0,0E0,0E0,0E0,0E0,0E0,0E0,0E0,0E0,0E0,0E0,0E0,0E0,0E0,0E0,0E0,0E0,0E0,0E0,0E0],"parents":[2147483647,0,0,1,1,2,2,3,3,4,4,5,5,6,6,7,7,9,9,10,10,11,11,12,12,13,13,14,14,15,15,16,16,17,17,18,18,19,19,20,20,21,21,22,22,23,23,24,24,25,25,26,26,27,27,28,28,29,29,31,31,32,32,33,33,34,34,35,35,37,37,38,38,39,39,40,40,41,41,42,42,43,43,44,44,46,46,47,47,49,49,50,50,51,51,52,52,53,53,54,54],"right_children":[2,4,6,8,10,12,14,16,-1,18,20,22,24,26,28,30,32,34,36,38,40,42,44,46,48,50,52,54,56,58,-1,60,62,64,66,68,-1,70,72,74,76,78,80,82,84,-1,86,88,-1,90,92,94,96,98,100,-1,-1,-1,-1,-1,-1,-1,-1,-1,-1,-1,-1,-1,-1,-1,-1,-1,-1,-1,-1,-1,-1,-1,-1,-1,-1,-1,-1,-1,-1,-1,-1,-1,-1,-1,-1,-1,-1,-1,-1,-1,-1,-1,-1,-1,-1],"split_conditions":[1.27E1,1.8E0,1.48E2,7E-1,4E0,1.96E1,3.44E1,1.0143E3,-6.1776366E-2,1.81E2,3.15E2,2.34E1,2.7E1,9.194871E0,4.4E1,3.06E2,4.9E1,1E0,8.3E0,2.87E2,3.4E2,2.29E1,1.81E1,2.14E1,3.6E1,1.98E1,3.2E1,1.39E1,4.9E1,4E-1,9.8007016E-2,1.4E1,2.11E2,1.04E1,2.44E1,1.21E1,9.395923E-2,9.9E0,1.16E1,1.89E1,1.88E1,1.16E1,9.2E0,2.4E1,3.6E1,-3.5614613E-2,1.0179E3,1.43E1,7.9223864E-2,1.4E1,2.9E1,4E0,6.6E0,1.0196E3,1.62E1,-6.8818375E-2,6.802184E-2,-2.7490044E-2,1.0383874E-1,-5.3040702E-2,8.636842E-2,-5.570023E-2,-1.055701E-2,-2.8010327E-2,9.840142E-2,-5.8181524E-2,4.0964242E-2,-2.8140312E-2,-6.102397E-2,2.934486E-3,2.800267E-2,8.046461E-2,-1.2857161E-2,-5.28449E-2,4.3333724E-2,3.747587E-2,-6.470407E-2,6.58508E-2,9.144258E-2,6.467919E-2,-4.794949E-2,-6.98067E-2,8.270752E-2,-6.267486E-2,8.074267E-2,7.8136526E-2,6.6479556E-2,-5.3779222E-2,5.148816E-2,3.22729E-2,-2.8608257E-2,-3.5749927E-2,9.648195E-2,-5.4413904E-2,7.564046E-2,7.8005366E-2,-4.815726E-2,8.482353E-2,6.5664076E-3,-1.4313975E-2,6.7498915E-2],"split_indices":[2,3,6,4,0,2,3,8,0,6,6,1,0,5,0,6,6,0,1,6,6,3,2,1,0,7,0,7,0,3,0,0,6,1,3,3,0,1,1,3,7,7,4,1,0,0,8,7,0,4,4,0,7,8,7,0,0,0,0,0,0,0,0,0,0,0,0,0,0,0,0,0,0,0,0,0,0,0,0,0,0,0,0,0,0,0,0,0,0,0,0,0,0,0,0,0,0,0,0,0,0],"split_type":[0,0,0,0,0,0,0,0,0,0,0,0,0,0,0,0,0,0,0,0,0,0,0,0,0,0,0,0,0,0,0,0,0,0,0,0,0,0,0,0,0,0,0,0,0,0,0,0,0,0,0,0,0,0,0,0,0,0,0,0,0,0,0,0,0,0,0,0,0,0,0,0,0,0,0,0,0,0,0,0,0,0,0,0,0,0,0,0,0,0,0,0,0,0,0,0,0,0,0,0,0],"sum_hessian":[1.2775705E4,5.400368E3,7.3753374E3,6.91467E2,4.708901E3,2.1576335E3,5.217704E3,4.5281326E2,2.3865376E2,2.3362686E2,4.4752744E3,8.692535E2,1.2883801E3,4.342071E3,8.756329E2,4.3073566E1,4.097397E2,2.016765E2,3.195037E1,3.81595E3,6.5932434E2,7.0130383E2,1.6794963E2,1.0716112E3,2.1676888E2,3.4006228E3,9.4144824E2,8.3027423E2,4.535865E1,2.9186043E1,1.3887522E1,2.0301071E1,3.8943863E2,2.3796127E1,1.7788037E2,8.472493E0,2.3477879E1,3.5128074E3,3.0314246E2,3.4789682E2,3.1142752E2,2.4254074E2,4.587631E2,8.523528E1,8.2714355E1,1.135463E0,1.0704757E3,5.9649277E1,1.571196E2,3.044976E3,3.556467E2,6.740217E2,2.6742648E2,6.057072E2,2.2456699E2,4.3359856E1,1.9987949E0,2.0584442E1,8.6016E0,3.5146828E0,1.6786388E1,2.4755002E2,1.4188861E2,1.2868095E1,1.0928032E1,1.6540569E2,1.2474674E1,2.948869E0,5.523624E0,1.3381387E3,2.1746687E3,2.300601E2,7.3082344E1,2.744744E2,7.342241E1,2.5155943E2,5.9868073E1,4.069799E1,2.0184274E2,3.8781314E2,7.094996E1,1.9648474E1,6.5586815E1,8.02511E1,2.463255E0,9.101584E2,1.6031735E2,2.8180742E1,3.1468534E1,2.869257E3,1.757189E2,3.117381E2,4.390861E1,1.4617069E1,6.5940466E2,1.3586523E2,1.3156126E2,5.821502E2,2.355705E1,6.0031563E1,1.6453543E2],"tree_param":{"num_deleted":"0","num_feature":"9","num_nodes":"101","size_leaf_vector":"1"}},{"base_weights":[1.410676E-1,4.3953496E-1,1.9775419E-2,6.771044E-1,3.48626E-1,9.616609E-2,-2.876846E-1,6.878805E-1,-3.1728753E-1,-4.7106022E-1,3.6736405E-1,-1.673748E-1,1.618226E-1,-3.140672E-1,9.124996E-2,6.326159E-2,7.014126E-1,-5.889619E-2,6.1693788E-2,4.349911E-1,-6.2437188E-2,3.877474E-1,-2.6861498E-1,-6.270773E-1,-4.1398057E-3,2.2830348E-1,-5.511559E-2,-2.1651852E-1,-6.3203615E-1,6.144113E-1,-6.322564E-2,7.5509167E-1,5.6970745E-1,-5.4990817E-2,7.864868E-2,-1.1711034E-1,4.127822E-1,-6.2602144E-1,2.9570368E-1,1.0439113E-1,-6.4973396E-1,9.575176E-1,-1.8310717E-1,2.5770405E-1,-3.4847075E-1,9.908415E-2,-5.0958943E-1,1.8481262E-2,-5.494776E-1,-6.3622184E-2,-4.014277E-1,-4.3998905E-2,8.159345E-2,7.600894E-2,-6.088428E-2,7.745815E-2,1.9466903E-2,-7.92334E-2,9.203554E-2,5.3314835E-2,2.793403E-2,8.9941025E-2,-7.638402E-2,9.4386324E-2,-4.6277743E-2,7.851151E-2,-5.9524186E-2,-5.700911E-2,-6.66991E-2,9.9763624E-2,-7.298698E-2,1.5807781E-2,-3.359445E-2,-2.4336511E-2,2.885179E-2,7.1507506E-2,-5.3882487E-2,5.4490145E-2,-1.0324885E-2,-5.5401873E-2,1.3325785E-1,-5.0014198E-2,1.754093E-2,-5.6804027E-2,9.920844E-2,-5.9596118E-2,5.4832727E-2],"categories":[],"categories_nodes":[],"categories_segments":[],"categories_sizes":[],"default_left":[0,0,0,0,0,0,0,0,0,0,0,0,0,0,0,0,0,0,0,0,0,0,0,0,0,0,0,0,0,0,0,0,0,0,0,0,0,0,0,0,0,0,0,0,0,0,0,0,0,0,0,0,0,0,0,0,0,0,0,0,0,0,0,0,0,0,0,0,0,0,0,0,0,0,0,0,0,0,0,0,0,0,0,0,0,0,0],"id":22,"left_children":[1,3,5,7,9,11,13,15,17,19,21,23,25,27,-1,29,31,-1,-1,33,-1,35,37,39,41,43,45,47,49,51,-1,53,55,-1,-1,57,59,61,63,65,67,69,71,73,75,77,79,81,83,-1,85,-1,-1,-1,-1,-1,-1,-1,-1,-1,-1,-1,-1,-1,-1,-1,-1,-1,-1,-1,-1,-1,-1,-1,-1,-1,-1,-1,-1,-1,-1,-1,-1,-1,-1,-1,-1],"loss_changes":[4.4002502E2,7.5618164E1,2.0304547E2,1.0622894E1,3.9220367E1,1.1984018E2,5.4763428E1,8.077362E0,3.179033E0,8.224831E0,3.2331085E1,1.0366537E2,7.996704E1,5.210292E1,0E0,8.620507E0,6.2183533E0,0E0,0E0,3.5050545E0,0E0,3.049826E1,1.5875372E1,6.067215E0,1.7580978E2,7.2050995E1,9.123878E1,1.0097279E2,1.2573242E-1,3.0125275E0,0E0,4.9959106E0,2.1084526E1,0E0,0E0,8.101024E1,3.6722748E1,1.0767521E1,1.5600346E1,6.057412E0,1.0253906E-1,1.1578445E1,4.496237E1,6.242221E1,4.214038E1,8.777021E1,2.7731728E1,6.1730774E1,1.5842056E1,0E0,2.1280107E0,0E0,0E0,0E0,0E0,0E0,0E0,0E0,0E0,0E0,0E0,0E0,0E0,0E0,0E0,0E0,0E0,0E0,0E0,0E0,0E0,0E0,0E0,0E0,0E0,0E0,0E0,0E0,0E0,0E0,0E0,0E0,0E0,0E0,0E0,0E0,0E0],"parents":[2147483647,0,0,1,1,2,2,3,3,4,4,5,5,6,6,7,7,8,8,9,9,10,10,11,11,12,12,13,13,15,15,16,16,19,19,21,21,22,22,23,23,24,24,25,25,26,26,27,27,28,28,29,29,31,31,32,32,35,35,36,36,37,37,38,38,39,39,40,40,41,41,42,42,43,43,44,44,45,45,46,46,47,47,48,48,50,50],"right_children":[2,4,6,8,10,12,14,16,18,20,22,24,26,28,-1,30,32,-1,-1,34,-1,36,38,40,42,44,46,48,50,52,-1,54,56,-1,-1,58,60,62,64,66,68,70,72,74,76,78,80,82,84,-1,86,-1,-1,-1,-1,-1,-1,-1,-1,-1,-1,-1,-1,-1,-1,-1,-1,-1,-1,-1,-1,-1,-1,-1,-1,-1,-1,-1,-1,-1,-1,-1,-1,-1,-1,-1,-1],"split_conditions":[1.16E1,1.8E0,2.24E1,4.6E1,9.95E2,9.7E1,4.4E1,1.0092E3,4.9E1,1.37E1,8E1,1E1,1.0186E3,4.2E1,9.124996E-2,1.24E1,1.025E3,-5.889619E-2,6.1693788E-2,-8E-1,-6.2437188E-2,2.7E1,2.8E2,9.9E0,1.7E1,3.5E1,2.98E1,9.194871E0,3.8E1,6E0,-6.322564E-2,5.08E2,-6.3E0,-5.4990817E-2,7.864868E-2,1.37E1,1.89E2,1.8E0,3.56E2,2E0,1.0107E3,2.84E1,2.3E1,4.3E0,1.72E2,1.9E1,1.39E1,1.5E2,3.1E1,-6.3622184E-2,1.0133E3,-4.3998905E-2,8.159345E-2,7.600894E-2,-6.088428E-2,7.745815E-2,1.9466903E-2,-7.92334E-2,9.203554E-2,5.3314835E-2,2.793403E-2,8.9941025E-2,-7.638402E-2,9.4386324E-2,-4.6277743E-2,7.851151E-2,-5.9524186E-2,-5.700911E-2,-6.66991E-2,9.9763624E-2,-7.298698E-2,1.5807781E-2,-3.359445E-2,-2.4336511E-2,2.885179E-2,7.1507506E-2,-5.3882487E-2,5.4490145E-2,-1.0324885E-2,-5.5401873E-2,1.3325785E-1,-5.0014198E-2,1.754093E-2,-5.6804027E-2,9.920844E-2,-5.9596118E-2,5.4832727E-2],"split_indices":[1,3,2,0,8,6,0,8,0,7,5,0,8,0,0,7,8,0,0,1,0,6,5,2,0,3,3,5,3,6,0,5,1,0,0,7,6,7,5,0,8,3,6,7,6,0,7,6,0,0,8,0,0,0,0,0,0,0,0,0,0,0,0,0,0,0,0,0,0,0,0,0,0,0,0,0,0,0,0,0,0,0,0,0,0,0,0],"split_type":[0,0,0,0,0,0,0,0,0,0,0,0,0,0,0,0,0,0,0,0,0,0,0,0,0,0,0,0,0,0,0,0,0,0,0,0,0,0,0,0,0,0,0,0,0,0,0,0,0,0,0,0,0,0,0,0,0,0,0,0,0,0,0,0,0,0,0,0,0,0,0,0,0,0,0,0,0,0,0,0,0,0,0,0,0,0,0],"sum_hessian":[1.2154037E4,3.5112278E3,8.642809E3,9.6997516E2,2.5412524E3,6.923342E3,1.7194672E3,9.598813E2,1.0093866E1,5.6255333E1,2.4849973E3,1.3805114E3,5.5428306E3,1.6832051E3,3.6262115E1,2.0474825E1,9.394065E2,8.106154E0,1.987712E0,7.87541E0,4.8379925E1,2.4082036E3,7.679348E1,3.610056E2,1.0195058E3,4.242623E3,1.3002074E3,1.289335E3,3.9387006E2,1.1487998E1,8.986828E0,6.640333E2,2.753731E2,1.9229047E0,5.9525056E0,1.136018E2,2.2946018E3,4.6949238E1,2.9844242E1,1.073753E1,3.502681E2,1.5928087E2,8.602249E2,4.0373745E3,2.0524858E2,9.714002E2,3.288072E2,7.564109E2,5.3292413E2,3.85121E2,8.749067E0,1.6534699E0,9.834528E0,6.6205023E2,1.9831179E0,1.7739911E2,9.797401E1,6.895769E1,4.4644108E1,1.2048329E3,1.089769E3,3.4323707E0,4.3516865E1,1.5960659E1,1.3883583E1,5.380382E0,5.357147E0,6.844112E1,2.8182697E2,1.5598111E2,3.299767E0,2.6612003E2,5.9410486E2,2.3349963E2,3.8038748E3,3.0740244E1,1.7450835E2,3.0271335E2,6.686869E2,3.2174658E2,7.060601E0,1.7520335E2,5.812075E2,5.272073E2,5.716828E0,7.570874E0,1.1781927E0],"tree_param":{"num_deleted":"0","num_feature":"9","num_nodes":"87","size_leaf_vector":"1"}},{"base_weights":[-6.223009E-1],"categories":[],"categories_nodes":[],"categories_segments":[],"categories_sizes":[],"default_left":[0],"id":23,"left_children":[-1],"loss_changes":[0E0],"parents":[2147483647],"right_children":[-1],"split_conditions":[-6.223009E-2],"split_indices":[0],"split_type":[0],"sum_hessian":[8.717024E3],"tree_param":{"num_deleted":"0","num_feature":"9","num_nodes":"1","size_leaf_vector":"1"}},{"base_weights":[2.711515E-1,7.718905E-2,4.1371834E-1,-3.7191102E-1,1.4010154E-1,5.9471464E-1,3.401618E-1,-2.5098744E-1,-6.054433E-2,1.5348148E-1,-5.2307236E-1,4.5040107E-1,6.9402874E-1,2.8649545E-1,6.1025125E-1,4.0776855E-1,-3.228867E-1,3.8125098E-2,2.5002733E-1,-6.4730465E-2,1.015348E-1,5.695511E-1,-5.21031E-2,7.24072E-1,5.437727E-1,2.196084E-1,5.311825E-1,6.7525774E-1,-5.917396E-1,-5.4043394E-2,5.4401433E-1,5.881065E-1,-3.7308905E-1,1.2047764E-1,-3.223557E-1,2.8362462E-1,-3.2505003E-1,8.187656E-1,4.3661335E-1,4.3271136E-1,-5.5721873E-1,-3.4038838E-2,7.255162E-1,1.3726839E-3,7.551587E-2,5.516399E-1,1.6163571E-1,6.8434364E-1,1.4472593E-1,7.690515E-1,4.2503655E-1,-6.652598E-2,6.5059625E-2,8.427023E-2,-7.0203846E-6,-5.1262345E-2,8.275698E-2,-5.4116953E-2,-8.772328E-3,4.2748332E-2,-2.1719702E-3,5.0608743E-2,-4.2217284E-2,5.9667874E-2,2.3359988E-2,1.7384728E-2,-5.559144E-2,6.08216E-2,8.5821085E-2,5.9913207E-2,-4.660481E-2,-4.6034228E-2,8.654585E-2,-6.0858708E-2,7.707898E-2,7.436769E-2,6.193585E-2,-5.3053677E-2,4.740559E-2,3.705703E-2,8.34227E-2,9.162663E-3,5.0166506E-2,-5.2636065E-2,7.11926E-2,5.925929E-2,-6.672283E-2,7.988533E-2,4.616687E-3,-1.4626342E-2,6.3393064E-2],"categories":[],"categories_nodes":[],"categories_segments":[],"categories_sizes":[],"default_left":[0,0,0,0,0,0,0,0,0,0,0,0,0,0,0,0,0,0,0,0,0,0,0,0,0,0,0,0,0,0,0,0,0,0,0,0,0,0,0,0,0,0,0,0,0,0,0,0,0,0,0,0,0,0,0,0,0,0,0,0,0,0,0,0,0,0,0,0,0,0,0,0,0,0,0,0,0,0,0,0,0,0,0,0,0,0,0,0,0,0,0],"id":24,"left_children":[1,3,5,7,9,11,13,15,-1,17,19,21,23,25,27,29,31,33,35,-1,-1,37,39,41,43,45,47,49,51,-1,53,55,57,59,61,63,65,67,69,71,73,-1,75,77,-1,79,81,83,85,87,89,-1,-1,-1,-1,